[{"nodeid":0,"depth":0,"split":"f1","split_condition":2651416,"yes":1,"no":2,"missing":1,"children":[{"nodeid":1,"depth":1,"split":"f1","split_condition":753602,"yes":3,"no":4,"missing":3,"children":[{"nodeid":3,"depth":2,"split":"f0","split_condition":5447497.5,"yes":7,"no":8,"missing":7,"children":[{"nodeid":7,"depth":3,"split":"f1","split_condition":65756.5,"yes":15,"no":16,"missing":15,"children":[{"nodeid":15,"depth":4,"split":"f0","split_condition":588373.5,"yes":31,"no":32,"missing":31,"children":[{"nodeid":31,"depth":5,"split":"f1","split_condition":11006.5,"yes":55,"no":56,"missing":55,"children":[{"nodeid":55,"depth":6,"split":"f0","split_condition":164846.5,"yes":87,"no":88,"missing":87,"children":[{"nodeid":87,"depth":7,"split":"f1","split_condition":2426.5,"yes":137,"no":138,"missing":137,"children":[{"nodeid":137,"depth":8,"split":"f0","split_condition":39062,"yes":205,"no":206,"missing":205,"children":[{"nodeid":205,"depth":9,"split":"f0","split_condition":18418.5,"yes":311,"no":312,"missing":311,"children":[{"nodeid":311,"depth":10,"split":"f0","split_condition":10158.5,"yes":463,"no":464,"missing":463,"children":[{"nodeid":463,"depth":11,"split":"f1","split_condition":214.5,"yes":699,"no":700,"missing":699,"children":[{"nodeid":699,"depth":12,"split":"f0","split_condition":4232.5,"yes":1059,"no":1060,"missing":1059,"children":[{"nodeid":1059,"depth":13,"split":"f1","split_condition":78.5,"yes":1561,"no":1562,"missing":1561,"children":[{"nodeid":1561,"depth":14,"split":"f0","split_condition":3168.5,"yes":2229,"no":2230,"missing":2229,"children":[{"nodeid":2229,"leaf":0.700487554},{"nodeid":2230,"leaf":1.25915003}]},{"nodeid":1562,"depth":14,"split":"f0","split_condition":2814.5,"yes":2231,"no":2232,"missing":2231,"children":[{"nodeid":2231,"leaf":1.28119957},{"nodeid":2232,"leaf":1.98810375}]}]},{"nodeid":1060,"depth":13,"split":"f0","split_condition":4244.5,"yes":1563,"no":1564,"missing":1563,"children":[{"nodeid":1563,"depth":14,"split":"f0","split_condition":4239.5,"yes":2233,"no":2234,"missing":2233,"children":[{"nodeid":2233,"leaf":2.10476184},{"nodeid":2234,"leaf":25.569231}]},{"nodeid":1564,"depth":14,"split":"f1","split_condition":115.5,"yes":2235,"no":2236,"missing":2235,"children":[{"nodeid":2235,"leaf":1.92493916},{"nodeid":2236,"leaf":2.70226336}]}]}]},{"nodeid":700,"depth":12,"split":"f1","split_condition":2123.5,"yes":1061,"no":1062,"missing":1061,"children":[{"nodeid":1061,"depth":13,"split":"f0","split_condition":6041.5,"yes":1565,"no":1566,"missing":1565,"children":[{"nodeid":1565,"depth":14,"split":"f0","split_condition":3188.5,"yes":2237,"no":2238,"missing":2237,"children":[{"nodeid":2237,"leaf":1.44620764},{"nodeid":2238,"leaf":2.65130758}]},{"nodeid":1566,"depth":14,"split":"f2","split_condition":0.00103588961,"yes":2239,"no":2240,"missing":2239,"children":[{"nodeid":2239,"leaf":4.7950511},{"nodeid":2240,"leaf":3.14790797}]}]},{"nodeid":1062,"leaf":28.414999}]}]},{"nodeid":464,"depth":11,"split":"f1","split_condition":285.5,"yes":701,"no":702,"missing":701,"children":[{"nodeid":701,"depth":12,"split":"f0","split_condition":13701.5,"yes":1063,"no":1064,"missing":1063,"children":[{"nodeid":1063,"depth":13,"split":"f1","split_condition":85.5,"yes":1567,"no":1568,"missing":1567,"children":[{"nodeid":1567,"depth":14,"split":"f0","split_condition":10499.5,"yes":2241,"no":2242,"missing":2241,"children":[{"nodeid":2241,"leaf":1.91160226},{"nodeid":2242,"leaf":2.9397378}]},{"nodeid":1568,"depth":14,"split":"f1","split_condition":86.5,"yes":2243,"no":2244,"missing":2243,"children":[{"nodeid":2243,"leaf":18.75},{"nodeid":2244,"leaf":3.36854815}]}]},{"nodeid":1064,"depth":13,"split":"f0","split_condition":13806.5,"yes":1569,"no":1570,"missing":1569,"children":[{"nodeid":1569,"depth":14,"split":"f1","split_condition":235.5,"yes":2245,"no":2246,"missing":2245,"children":[{"nodeid":2245,"leaf":5.46714306},{"nodeid":2246,"leaf":78.2363663}]},{"nodeid":1570,"depth":14,"split":"f2","split_condition":5.43627357e-05,"yes":2247,"no":2248,"missing":2247,"children":[{"nodeid":2247,"leaf":3.47666168},{"nodeid":2248,"leaf":4.20077419}]}]}]},{"nodeid":702,"depth":12,"split":"f1","split_condition":286.5,"yes":1065,"no":1066,"missing":1065,"children":[{"nodeid":1065,"leaf":55.6928596},{"nodeid":1066,"depth":13,"split":"f2","split_condition":0.000184925215,"yes":1571,"no":1572,"missing":1571,"children":[{"nodeid":1571,"depth":14,"split":"f2","split_condition":0.000183398253,"yes":2249,"no":2250,"missing":2249,"children":[{"nodeid":2249,"leaf":6.13750029},{"nodeid":2250,"leaf":137.690903}]},{"nodeid":1572,"depth":14,"split":"f2","split_condition":0.00197213981,"yes":2251,"no":2252,"missing":2251,"children":[{"nodeid":2251,"leaf":7.9018836},{"nodeid":2252,"leaf":35.3650017}]}]}]}]}]},{"nodeid":312,"depth":10,"split":"f1","split_condition":343.5,"yes":465,"no":466,"missing":465,"children":[{"nodeid":465,"depth":11,"split":"f0","split_condition":21760.5,"yes":703,"no":704,"missing":703,"children":[{"nodeid":703,"depth":12,"split":"f1","split_condition":51.5,"yes":1067,"no":1068,"missing":1067,"children":[{"nodeid":1067,"depth":13,"split":"f1","split_condition":49.5,"yes":1573,"no":1574,"missing":1573,"children":[{"nodeid":1573,"depth":14,"split":"f0","split_condition":18776,"yes":2253,"no":2254,"missing":2253,"children":[{"nodeid":2253,"leaf":10.1030302},{"nodeid":2254,"leaf":4.70742035}]},{"nodeid":1574,"leaf":63.3454552}]},{"nodeid":1068,"depth":13,"split":"f1","split_condition":187.5,"yes":1575,"no":1576,"missing":1575,"children":[{"nodeid":1575,"depth":14,"split":"f1","split_condition":120.5,"yes":2255,"no":2256,"missing":2255,"children":[{"nodeid":2255,"leaf":4.92678833},{"nodeid":2256,"leaf":4.063169}]},{"nodeid":1576,"depth":14,"split":"f2","split_condition":9.11898969e-05,"yes":2257,"no":2258,"missing":2257,"children":[{"nodeid":2257,"leaf":15.2071428},{"nodeid":2258,"leaf":5.70590782}]}]}]},{"nodeid":704,"depth":12,"split":"f0","split_condition":21791.5,"yes":1069,"no":1070,"missing":1069,"children":[{"nodeid":1069,"leaf":69.7750015},{"nodeid":1070,"depth":13,"split":"f0","split_condition":22132,"yes":1577,"no":1578,"missing":1577,"children":[{"nodeid":1577,"depth":14,"split":"f0","split_condition":22116.5,"yes":2259,"no":2260,"missing":2259,"children":[{"nodeid":2259,"leaf":6.01206923},{"nodeid":2260,"leaf":176.545456}]},{"nodeid":1578,"depth":14,"split":"f2","split_condition":0.00012632276,"yes":2261,"no":2262,"missing":2261,"children":[{"nodeid":2261,"leaf":7.83117056},{"nodeid":2262,"leaf":13.9370642}]}]}]}]},{"nodeid":466,"depth":11,"split":"f0","split_condition":18428.5,"yes":705,"no":706,"missing":705,"children":[{"nodeid":705,"leaf":95.272728},{"nodeid":706,"depth":12,"split":"f1","split_condition":794.5,"yes":1071,"no":1072,"missing":1071,"children":[{"nodeid":1071,"depth":13,"split":"f0","split_condition":18533,"yes":1579,"no":1580,"missing":1579,"children":[{"nodeid":1579,"depth":14,"split":"f0","split_condition":18497.5,"yes":2263,"no":2264,"missing":2263,"children":[{"nodeid":2263,"leaf":4.67500019},{"nodeid":2264,"leaf":169.272736}]},{"nodeid":1580,"depth":14,"split":"f1","split_condition":457.5,"yes":2265,"no":2266,"missing":2265,"children":[{"nodeid":2265,"leaf":15.8724537},{"nodeid":2266,"leaf":10.4900112}]}]},{"nodeid":1072,"depth":13,"split":"f1","split_condition":797.5,"yes":1581,"no":1582,"missing":1581,"children":[{"nodeid":1581,"depth":14,"split":"f0","split_condition":25824.5,"yes":2267,"no":2268,"missing":2267,"children":[{"nodeid":2267,"leaf":7.29090881},{"nodeid":2268,"leaf":169.836365}]},{"nodeid":1582,"depth":14,"split":"f0","split_condition":25007,"yes":2269,"no":2270,"missing":2269,"children":[{"nodeid":2269,"leaf":13.2265749},{"nodeid":2270,"leaf":19.7403984}]}]}]}]}]}]},{"nodeid":206,"depth":9,"split":"f1","split_condition":1072.5,"yes":313,"no":314,"missing":313,"children":[{"nodeid":313,"depth":10,"split":"f0","split_condition":100431.5,"yes":467,"no":468,"missing":467,"children":[{"nodeid":467,"depth":11,"split":"f0","split_condition":67228.5,"yes":707,"no":708,"missing":707,"children":[{"nodeid":707,"depth":12,"split":"f1","split_condition":359.5,"yes":1073,"no":1074,"missing":1073,"children":[{"nodeid":1073,"depth":13,"split":"f0","split_condition":49663.5,"yes":1583,"no":1584,"missing":1583,"children":[{"nodeid":1583,"depth":14,"split":"f2","split_condition":8.49619828e-05,"yes":2271,"no":2272,"missing":2271,"children":[{"nodeid":2271,"leaf":10.1622553},{"nodeid":2272,"leaf":23.0027771}]},{"nodeid":1584,"depth":14,"split":"f0","split_condition":49711.5,"yes":2273,"no":2274,"missing":2273,"children":[{"nodeid":2273,"leaf":111.563637},{"nodeid":2274,"leaf":13.8090134}]}]},{"nodeid":1074,"depth":13,"split":"f0","split_condition":39424.5,"yes":1585,"no":1586,"missing":1585,"children":[{"nodeid":1585,"depth":14,"split":"f0","split_condition":39401.5,"yes":2275,"no":2276,"missing":2275,"children":[{"nodeid":2275,"leaf":18.7833328},{"nodeid":2276,"leaf":140.872726}]},{"nodeid":1586,"depth":14,"split":"f1","split_condition":750.5,"yes":2277,"no":2278,"missing":2277,"children":[{"nodeid":2277,"leaf":15.6867743},{"nodeid":2278,"leaf":18.7006989}]}]}]},{"nodeid":708,"depth":12,"split":"f2","split_condition":0.000153822926,"yes":1075,"no":1076,"missing":1075,"children":[{"nodeid":1075,"depth":13,"split":"f1","split_condition":528.5,"yes":1587,"no":1588,"missing":1587,"children":[{"nodeid":1587,"depth":14,"split":"f0","split_condition":84874.5,"yes":2279,"no":2280,"missing":2279,"children":[{"nodeid":2279,"leaf":16.6423645},{"nodeid":2280,"leaf":20.3620148}]},{"nodeid":1588,"depth":14,"split":"f1","split_condition":531.5,"yes":2281,"no":2282,"missing":2281,"children":[{"nodeid":2281,"leaf":142.856247},{"nodeid":2282,"leaf":23.8207359}]}]},{"nodeid":1076,"leaf":140.345459}]}]},{"nodeid":468,"depth":11,"split":"f0","split_condition":130410,"yes":709,"no":710,"missing":709,"children":[{"nodeid":709,"depth":12,"split":"f0","split_condition":100711.5,"yes":1077,"no":1078,"missing":1077,"children":[{"nodeid":1077,"depth":13,"split":"f0","split_condition":100625.5,"yes":1589,"no":1590,"missing":1589,"children":[{"nodeid":1589,"depth":14,"split":"f1","split_condition":688.5,"yes":2283,"no":2284,"missing":2283,"children":[{"nodeid":2283,"leaf":17.3291683},{"nodeid":2284,"leaf":34.4916649}]},{"nodeid":1590,"depth":14,"split":"f1","split_condition":357.5,"yes":2285,"no":2286,"missing":2285,"children":[{"nodeid":2285,"leaf":152.254547},{"nodeid":2286,"leaf":65.7583313}]}]},{"nodeid":1078,"depth":13,"split":"f1","split_condition":408.5,"yes":1591,"no":1592,"missing":1591,"children":[{"nodeid":1591,"depth":14,"split":"f2","split_condition":8.15329622e-06,"yes":2287,"no":2288,"missing":2287,"children":[{"nodeid":2287,"leaf":37.5859184},{"nodeid":2288,"leaf":20.5139065}]},{"nodeid":1592,"depth":14,"split":"f1","split_condition":415.5,"yes":2289,"no":2290,"missing":2289,"children":[{"nodeid":2289,"leaf":67.8326569},{"nodeid":2290,"leaf":26.5049801}]}]}]},{"nodeid":710,"depth":12,"split":"f2","split_condition":3.00859301e-05,"yes":1079,"no":1080,"missing":1079,"children":[{"nodeid":1079,"depth":13,"split":"f0","split_condition":156863.5,"yes":1593,"no":1594,"missing":1593,"children":[{"nodeid":1593,"depth":14,"split":"f0","split_condition":132484,"yes":2291,"no":2292,"missing":2291,"children":[{"nodeid":2291,"leaf":37.1431046},{"nodeid":2292,"leaf":24.3867855}]},{"nodeid":1594,"depth":14,"split":"f1","split_condition":360.5,"yes":2293,"no":2294,"missing":2293,"children":[{"nodeid":2293,"leaf":39.3382835},{"nodeid":2294,"leaf":23.3441448}]}]},{"nodeid":1080,"depth":13,"split":"f1","split_condition":448.5,"yes":1595,"no":1596,"missing":1595,"children":[{"nodeid":1595,"depth":14,"split":"f1","split_condition":443,"yes":2295,"no":2296,"missing":2295,"children":[{"nodeid":2295,"leaf":64.0069504},{"nodeid":2296,"leaf":313.927277}]},{"nodeid":1596,"depth":14,"split":"f1","split_condition":710.5,"yes":2297,"no":2298,"missing":2297,"children":[{"nodeid":2297,"leaf":30.3099823},{"nodeid":2298,"leaf":37.3312836}]}]}]}]}]},{"nodeid":314,"depth":10,"split":"f0","split_condition":88353.5,"yes":469,"no":470,"missing":469,"children":[{"nodeid":469,"depth":11,"split":"f2","split_condition":0.000554862607,"yes":711,"no":712,"missing":711,"children":[{"nodeid":711,"depth":12,"split":"f0","split_condition":69018.5,"yes":1081,"no":1082,"missing":1081,"children":[{"nodeid":1081,"depth":13,"split":"f1","split_condition":1134.5,"yes":1597,"no":1598,"missing":1597,"children":[{"nodeid":1597,"depth":14,"split":"f1","split_condition":1130.5,"yes":2299,"no":2300,"missing":2299,"children":[{"nodeid":2299,"leaf":34.1643791},{"nodeid":2300,"leaf":163.931824}]},{"nodeid":1598,"depth":14,"split":"f0","split_condition":43386.5,"yes":2301,"no":2302,"missing":2301,"children":[{"nodeid":2301,"leaf":17.8062286},{"nodeid":2302,"leaf":27.5119781}]}]},{"nodeid":1082,"depth":13,"split":"f0","split_condition":69137.5,"yes":1599,"no":1600,"missing":1599,"children":[{"nodeid":1599,"leaf":193.254547},{"nodeid":1600,"depth":14,"split":"f0","split_condition":77049,"yes":2303,"no":2304,"missing":2303,"children":[{"nodeid":2303,"leaf":38.7468376},{"nodeid":2304,"leaf":30.2481823}]}]}]},{"nodeid":712,"depth":12,"split":"f1","split_condition":2238.5,"yes":1083,"no":1084,"missing":1083,"children":[{"nodeid":1083,"leaf":574.490906},{"nodeid":1084,"depth":13,"split":"f0","split_condition":39456.5,"yes":1601,"no":1602,"missing":1601,"children":[{"nodeid":1601,"leaf":54.7454529},{"nodeid":1602,"depth":14,"split":"f0","split_condition":41938,"yes":2305,"no":2306,"missing":2305,"children":[{"nodeid":2305,"leaf":15.061017},{"nodeid":2306,"leaf":24.3083324}]}]}]}]},{"nodeid":470,"depth":11,"split":"f1","split_condition":1309.5,"yes":713,"no":714,"missing":713,"children":[{"nodeid":713,"depth":12,"split":"f2","split_condition":0.000127178355,"yes":1085,"no":1086,"missing":1085,"children":[{"nodeid":1085,"depth":13,"split":"f0","split_condition":89386.5,"yes":1603,"no":1604,"missing":1603,"children":[{"nodeid":1603,"leaf":85.5636368},{"nodeid":1604,"depth":14,"split":"f1","split_condition":1073.5,"yes":2307,"no":2308,"missing":2307,"children":[{"nodeid":2307,"leaf":72.2307663},{"nodeid":2308,"leaf":34.2832451}]}]},{"nodeid":1086,"depth":13,"split":"f2","split_condition":0.000131209439,"yes":1605,"no":1606,"missing":1605,"children":[{"nodeid":1605,"depth":14,"split":"f2","split_condition":0.000127575826,"yes":2309,"no":2310,"missing":2309,"children":[{"nodeid":2309,"leaf":8.65454578},{"nodeid":2310,"leaf":17.3944454}]},{"nodeid":1606,"depth":14,"split":"f2","split_condition":0.000138021016,"yes":2311,"no":2312,"missing":2311,"children":[{"nodeid":2311,"leaf":28.958334},{"nodeid":2312,"leaf":15.2071428}]}]}]},{"nodeid":714,"depth":12,"split":"f1","split_condition":1315.5,"yes":1087,"no":1088,"missing":1087,"children":[{"nodeid":1087,"depth":13,"split":"f0","split_condition":106543,"yes":1607,"no":1608,"missing":1607,"children":[{"nodeid":1607,"leaf":542.927307},{"nodeid":1608,"depth":14,"split":"f0","split_condition":131265,"yes":2313,"no":2314,"missing":2313,"children":[{"nodeid":2313,"leaf":25.7583351},{"nodeid":2314,"leaf":59.6400032}]}]},{"nodeid":1088,"depth":13,"split":"f1","split_condition":1380.5,"yes":1609,"no":1610,"missing":1609,"children":[{"nodeid":1609,"depth":14,"split":"f2","split_condition":8.94432742e-05,"yes":2315,"no":2316,"missing":2315,"children":[{"nodeid":2315,"leaf":38.9750023},{"nodeid":2316,"leaf":26.3250771}]},{"nodeid":1610,"depth":14,"split":"f1","split_condition":2229.5,"yes":2317,"no":2318,"missing":2317,"children":[{"nodeid":2317,"leaf":42.658123},{"nodeid":2318,"leaf":52.8915291}]}]}]}]}]}]}]},{"nodeid":138,"depth":8,"split":"f0","split_condition":76697,"yes":207,"no":208,"missing":207,"children":[{"nodeid":207,"depth":9,"split":"f0","split_condition":57017.5,"yes":315,"no":316,"missing":315,"children":[{"nodeid":315,"depth":10,"split":"f1","split_condition":2456.5,"yes":471,"no":472,"missing":471,"children":[{"nodeid":471,"depth":11,"split":"f2","split_condition":0.000728281331,"yes":715,"no":716,"missing":715,"children":[{"nodeid":715,"depth":12,"split":"f1","split_condition":2429.5,"yes":1089,"no":1090,"missing":1089,"children":[{"nodeid":1089,"leaf":112.909096},{"nodeid":1090,"depth":13,"split":"f1","split_condition":2453.5,"yes":1611,"no":1612,"missing":1611,"children":[{"nodeid":1611,"depth":14,"split":"f0","split_condition":43870.5,"yes":2319,"no":2320,"missing":2319,"children":[{"nodeid":2319,"leaf":13.8925009},{"nodeid":2320,"leaf":29.4394741}]},{"nodeid":1612,"leaf":45.1818199}]}]},{"nodeid":716,"depth":12,"split":"f0","split_condition":31480.5,"yes":1091,"no":1092,"missing":1091,"children":[{"nodeid":1091,"depth":13,"split":"f1","split_condition":2453.5,"yes":1613,"no":1614,"missing":1613,"children":[{"nodeid":1613,"depth":14,"split":"f0","split_condition":23093.5,"yes":2321,"no":2322,"missing":2321,"children":[{"nodeid":2321,"leaf":64.4888916},{"nodeid":2322,"leaf":11.5212126}]},{"nodeid":1614,"leaf":196.378586}]},{"nodeid":1092,"leaf":233.384628}]}]},{"nodeid":472,"depth":11,"split":"f1","split_condition":5622.5,"yes":717,"no":718,"missing":717,"children":[{"nodeid":717,"depth":12,"split":"f2","split_condition":0.00183952879,"yes":1093,"no":1094,"missing":1093,"children":[{"nodeid":1093,"depth":13,"split":"f2","split_condition":0.00154046109,"yes":1615,"no":1616,"missing":1615,"children":[{"nodeid":1615,"depth":14,"split":"f1","split_condition":4289.5,"yes":2323,"no":2324,"missing":2323,"children":[{"nodeid":2323,"leaf":34.1601105},{"nodeid":2324,"leaf":25.7889919}]},{"nodeid":1616,"depth":14,"split":"f2","split_condition":0.00159925944,"yes":2325,"no":2326,"missing":2325,"children":[{"nodeid":2325,"leaf":116.748535},{"nodeid":2326,"leaf":36.6240578}]}]},{"nodeid":1094,"depth":13,"split":"f1","split_condition":2892.5,"yes":1617,"no":1618,"missing":1617,"children":[{"nodeid":1617,"depth":14,"split":"f1","split_condition":2814.5,"yes":2327,"no":2328,"missing":2327,"children":[{"nodeid":2327,"leaf":5.41590929},{"nodeid":2328,"leaf":95.5636368}]},{"nodeid":1618,"depth":14,"split":"f0","split_condition":24820,"yes":2329,"no":2330,"missing":2329,"children":[{"nodeid":2329,"leaf":6.62649012},{"nodeid":2330,"leaf":12.583334}]}]}]},{"nodeid":718,"depth":12,"split":"f1","split_condition":5638.5,"yes":1095,"no":1096,"missing":1095,"children":[{"nodeid":1095,"leaf":197.927277},{"nodeid":1096,"depth":13,"split":"f2","split_condition":0.00132752326,"yes":1619,"no":1620,"missing":1619,"children":[{"nodeid":1619,"depth":14,"split":"f2","split_condition":0.0013102463,"yes":2331,"no":2332,"missing":2331,"children":[{"nodeid":2331,"leaf":47.9468155},{"nodeid":2332,"leaf":362.975006}]},{"nodeid":1620,"depth":14,"split":"f1","split_condition":5914.5,"yes":2333,"no":2334,"missing":2333,"children":[{"nodeid":2333,"leaf":57.0028992},{"nodeid":2334,"leaf":30.9025116}]}]}]}]}]},{"nodeid":316,"depth":10,"split":"f2","split_condition":0.000510663667,"yes":473,"no":474,"missing":473,"children":[{"nodeid":473,"depth":11,"split":"f0","split_condition":66531,"yes":719,"no":720,"missing":719,"children":[{"nodeid":719,"depth":12,"split":"f0","split_condition":66226.5,"yes":1097,"no":1098,"missing":1097,"children":[{"nodeid":1097,"depth":13,"split":"f1","split_condition":2868.5,"yes":1621,"no":1622,"missing":1621,"children":[{"nodeid":1621,"depth":14,"split":"f2","split_condition":0.000443690369,"yes":2335,"no":2336,"missing":2335,"children":[{"nodeid":2335,"leaf":32.4790459},{"nodeid":2336,"leaf":19.1410866}]},{"nodeid":1622,"depth":14,"split":"f1","split_condition":2997.5,"yes":2337,"no":2338,"missing":2337,"children":[{"nodeid":2337,"leaf":61.0088501},{"nodeid":2338,"leaf":22.6291046}]}]},{"nodeid":1098,"depth":13,"split":"f1","split_condition":2944.5,"yes":1623,"no":1624,"missing":1623,"children":[{"nodeid":1623,"leaf":585.825012},{"nodeid":1624,"leaf":21.7454548}]}]},{"nodeid":720,"depth":12,"split":"f0","split_condition":74942,"yes":1099,"no":1100,"missing":1099,"children":[{"nodeid":1099,"depth":13,"split":"f2","split_condition":0.000502156676,"yes":1625,"no":1626,"missing":1625,"children":[{"nodeid":1625,"depth":14,"split":"f1","split_condition":3307,"yes":2339,"no":2340,"missing":2339,"children":[{"nodeid":2339,"leaf":31.4666119},{"nodeid":2340,"leaf":23.1235676}]},{"nodeid":1626,"depth":14,"split":"f2","split_condition":0.000505640288,"yes":2341,"no":2342,"missing":2341,"children":[{"nodeid":2341,"leaf":94.618187},{"nodeid":2342,"leaf":26.1375008}]}]},{"nodeid":1100,"depth":13,"split":"f0","split_condition":75858,"yes":1627,"no":1628,"missing":1627,"children":[{"nodeid":1627,"depth":14,"split":"f0","split_condition":75766,"yes":2343,"no":2344,"missing":2343,"children":[{"nodeid":2343,"leaf":44.3671074},{"nodeid":2344,"leaf":91.6545486}]},{"nodeid":1628,"depth":14,"split":"f2","split_condition":0.000433278241,"yes":2345,"no":2346,"missing":2345,"children":[{"nodeid":2345,"leaf":37.8117638},{"nodeid":2346,"leaf":19.3853664}]}]}]}]},{"nodeid":474,"depth":11,"split":"f2","split_condition":0.000511253427,"yes":721,"no":722,"missing":721,"children":[{"nodeid":721,"leaf":289.909088},{"nodeid":722,"depth":12,"split":"f1","split_condition":4919.5,"yes":1101,"no":1102,"missing":1101,"children":[{"nodeid":1101,"depth":13,"split":"f1","split_condition":3731.5,"yes":1629,"no":1630,"missing":1629,"children":[{"nodeid":1629,"depth":14,"split":"f1","split_condition":3680,"yes":2347,"no":2348,"missing":2347,"children":[{"nodeid":2347,"leaf":46.9647179},{"nodeid":2348,"leaf":147.632843}]},{"nodeid":1630,"depth":14,"split":"f1","split_condition":3833.5,"yes":2349,"no":2350,"missing":2349,"children":[{"nodeid":2349,"leaf":27.5689392},{"nodeid":2350,"leaf":42.6736412}]}]},{"nodeid":1102,"depth":13,"split":"f1","split_condition":4926.5,"yes":1631,"no":1632,"missing":1631,"children":[{"nodeid":1631,"leaf":372.858337},{"nodeid":1632,"depth":14,"split":"f0","split_condition":57634.5,"yes":2351,"no":2352,"missing":2351,"children":[{"nodeid":2351,"leaf":116.560783},{"nodeid":2352,"leaf":54.1606407}]}]}]}]}]}]},{"nodeid":208,"depth":9,"split":"f1","split_condition":6984.5,"yes":317,"no":318,"missing":317,"children":[{"nodeid":317,"depth":10,"split":"f0","split_condition":76726,"yes":475,"no":476,"missing":475,"children":[{"nodeid":475,"leaf":284.436371},{"nodeid":476,"depth":11,"split":"f1","split_condition":4904.5,"yes":723,"no":724,"missing":723,"children":[{"nodeid":723,"depth":12,"split":"f0","split_condition":107472.5,"yes":1103,"no":1104,"missing":1103,"children":[{"nodeid":1103,"depth":13,"split":"f2","split_condition":0.000434488815,"yes":1633,"no":1634,"missing":1633,"children":[{"nodeid":1633,"depth":14,"split":"f0","split_condition":101823.5,"yes":2353,"no":2354,"missing":2353,"children":[{"nodeid":2353,"leaf":43.5085106},{"nodeid":2354,"leaf":56.7843018}]},{"nodeid":1634,"depth":14,"split":"f1","split_condition":3510.5,"yes":2355,"no":2356,"missing":2355,"children":[{"nodeid":2355,"leaf":153.490631},{"nodeid":2356,"leaf":58.5721703}]}]},{"nodeid":1104,"depth":13,"split":"f0","split_condition":107566.5,"yes":1635,"no":1636,"missing":1635,"children":[{"nodeid":1635,"leaf":611.945496},{"nodeid":1636,"depth":14,"split":"f0","split_condition":127965,"yes":2357,"no":2358,"missing":2357,"children":[{"nodeid":2357,"leaf":67.3480453},{"nodeid":2358,"leaf":57.8158684}]}]}]},{"nodeid":724,"depth":12,"split":"f1","split_condition":4922.5,"yes":1105,"no":1106,"missing":1105,"children":[{"nodeid":1105,"depth":13,"split":"f1","split_condition":4918.5,"yes":1637,"no":1638,"missing":1637,"children":[{"nodeid":1637,"depth":14,"split":"f0","split_condition":93589,"yes":2359,"no":2360,"missing":2359,"children":[{"nodeid":2359,"leaf":21.5818176},{"nodeid":2360,"leaf":85.1714325}]},{"nodeid":1638,"leaf":830.308289}]},{"nodeid":1106,"depth":13,"split":"f2","split_condition":0.00063484069,"yes":1639,"no":1640,"missing":1639,"children":[{"nodeid":1639,"depth":14,"split":"f0","split_condition":85650.5,"yes":2361,"no":2362,"missing":2361,"children":[{"nodeid":2361,"leaf":126.510719},{"nodeid":2362,"leaf":68.7010269}]},{"nodeid":1640,"depth":14,"split":"f0","split_condition":77372.5,"yes":2363,"no":2364,"missing":2363,"children":[{"nodeid":2363,"leaf":117.12709},{"nodeid":2364,"leaf":52.3451653}]}]}]}]}]},{"nodeid":318,"depth":10,"split":"f1","split_condition":7034.5,"yes":477,"no":478,"missing":477,"children":[{"nodeid":477,"depth":11,"split":"f1","split_condition":7010.5,"yes":725,"no":726,"missing":725,"children":[{"nodeid":725,"depth":12,"split":"f1","split_condition":6990.5,"yes":1107,"no":1108,"missing":1107,"children":[{"nodeid":1107,"leaf":193.707138},{"nodeid":1108,"depth":13,"split":"f1","split_condition":7002.5,"yes":1641,"no":1642,"missing":1641,"children":[{"nodeid":1641,"leaf":46.2374992},{"nodeid":1642,"leaf":29.1692333}]}]},{"nodeid":726,"depth":12,"split":"f0","split_condition":129965,"yes":1109,"no":1110,"missing":1109,"children":[{"nodeid":1109,"leaf":545.485046},{"nodeid":1110,"leaf":101.961113}]}]},{"nodeid":478,"depth":11,"split":"f0","split_condition":76921.5,"yes":727,"no":728,"missing":727,"children":[{"nodeid":727,"leaf":357.454559},{"nodeid":728,"depth":12,"split":"f0","split_condition":85966,"yes":1111,"no":1112,"missing":1111,"children":[{"nodeid":1111,"depth":13,"split":"f2","split_condition":0.000885892077,"yes":1643,"no":1644,"missing":1643,"children":[{"nodeid":1643,"depth":14,"split":"f1","split_condition":7297.5,"yes":2365,"no":2366,"missing":2365,"children":[{"nodeid":2365,"leaf":47.8961563},{"nodeid":2366,"leaf":573.981873}]},{"nodeid":1644,"depth":14,"split":"f1","split_condition":7885.5,"yes":2367,"no":2368,"missing":2367,"children":[{"nodeid":2367,"leaf":35.9264717},{"nodeid":2368,"leaf":115.515991}]}]},{"nodeid":1112,"depth":13,"split":"f1","split_condition":10144.5,"yes":1645,"no":1646,"missing":1645,"children":[{"nodeid":1645,"depth":14,"split":"f2","split_condition":0.000926155481,"yes":2369,"no":2370,"missing":2369,"children":[{"nodeid":2369,"leaf":79.2348557},{"nodeid":2370,"leaf":53.6299324}]},{"nodeid":1646,"depth":14,"split":"f0","split_condition":122156,"yes":2371,"no":2372,"missing":2371,"children":[{"nodeid":2371,"leaf":129.910309},{"nodeid":2372,"leaf":72.8120575}]}]}]}]}]}]}]}]},{"nodeid":88,"depth":7,"split":"f0","split_condition":346791,"yes":139,"no":140,"missing":139,"children":[{"nodeid":139,"depth":8,"split":"f1","split_condition":1530.5,"yes":209,"no":210,"missing":209,"children":[{"nodeid":209,"depth":9,"split":"f0","split_condition":235413,"yes":319,"no":320,"missing":319,"children":[{"nodeid":319,"depth":10,"split":"f0","split_condition":212304.5,"yes":479,"no":480,"missing":479,"children":[{"nodeid":479,"depth":11,"split":"f1","split_condition":1226.5,"yes":729,"no":730,"missing":729,"children":[{"nodeid":729,"depth":12,"split":"f1","split_condition":420.5,"yes":1113,"no":1114,"missing":1113,"children":[{"nodeid":1113,"depth":13,"split":"f1","split_condition":269,"yes":1647,"no":1648,"missing":1647,"children":[{"nodeid":1647,"depth":14,"split":"f0","split_condition":201334.5,"yes":2373,"no":2374,"missing":2373,"children":[{"nodeid":2373,"leaf":36.8510551},{"nodeid":2374,"leaf":59.767498}]},{"nodeid":1648,"depth":14,"split":"f1","split_condition":281.5,"yes":2375,"no":2376,"missing":2375,"children":[{"nodeid":2375,"leaf":17.5968761},{"nodeid":2376,"leaf":28.6239986}]}]},{"nodeid":1114,"depth":13,"split":"f0","split_condition":180785,"yes":1649,"no":1650,"missing":1649,"children":[{"nodeid":1649,"depth":14,"split":"f1","split_condition":566.5,"yes":2377,"no":2378,"missing":2377,"children":[{"nodeid":2377,"leaf":29.9234371},{"nodeid":2378,"leaf":39.1441917}]},{"nodeid":1650,"depth":14,"split":"f0","split_condition":180953.5,"yes":2379,"no":2380,"missing":2379,"children":[{"nodeid":2379,"leaf":124.907692},{"nodeid":2380,"leaf":45.1349907}]}]}]},{"nodeid":730,"depth":12,"split":"f2","split_condition":8.31736543e-05,"yes":1115,"no":1116,"missing":1115,"children":[{"nodeid":1115,"depth":13,"split":"f1","split_condition":1408,"yes":1651,"no":1652,"missing":1651,"children":[{"nodeid":1651,"depth":14,"split":"f1","split_condition":1402.5,"yes":2381,"no":2382,"missing":2381,"children":[{"nodeid":2381,"leaf":55.3689766},{"nodeid":2382,"leaf":126.353844}]},{"nodeid":1652,"depth":14,"split":"f1","split_condition":1506,"yes":2383,"no":2384,"missing":2383,"children":[{"nodeid":2383,"leaf":36.6866341},{"nodeid":2384,"leaf":70.497673}]}]},{"nodeid":1116,"depth":13,"split":"f2","split_condition":8.39686909e-05,"yes":1653,"no":1654,"missing":1653,"children":[{"nodeid":1653,"leaf":237.527267},{"nodeid":1654,"depth":14,"split":"f1","split_condition":1491,"yes":2385,"no":2386,"missing":2385,"children":[{"nodeid":2385,"leaf":32.5031242},{"nodeid":2386,"leaf":54.2451591}]}]}]}]},{"nodeid":480,"depth":11,"split":"f0","split_condition":212420,"yes":731,"no":732,"missing":731,"children":[{"nodeid":731,"leaf":293.1091},{"nodeid":732,"depth":12,"split":"f0","split_condition":229056,"yes":1117,"no":1118,"missing":1117,"children":[{"nodeid":1117,"depth":13,"split":"f0","split_condition":228873,"yes":1655,"no":1656,"missing":1655,"children":[{"nodeid":1655,"depth":14,"split":"f0","split_condition":227542,"yes":2387,"no":2388,"missing":2387,"children":[{"nodeid":2387,"leaf":52.3456306},{"nodeid":2388,"leaf":71.340744}]},{"nodeid":1656,"leaf":186.709091}]},{"nodeid":1118,"depth":13,"split":"f1","split_condition":1484.5,"yes":1657,"no":1658,"missing":1657,"children":[{"nodeid":1657,"depth":14,"split":"f1","split_condition":388.5,"yes":2389,"no":2390,"missing":2389,"children":[{"nodeid":2389,"leaf":23.7675686},{"nodeid":2390,"leaf":41.5216522}]},{"nodeid":1658,"leaf":82.293335}]}]}]}]},{"nodeid":320,"depth":10,"split":"f0","split_condition":295878.5,"yes":481,"no":482,"missing":481,"children":[{"nodeid":481,"depth":11,"split":"f1","split_condition":523.5,"yes":733,"no":734,"missing":733,"children":[{"nodeid":733,"depth":12,"split":"f2","split_condition":1.98307262e-05,"yes":1119,"no":1120,"missing":1119,"children":[{"nodeid":1119,"depth":13,"split":"f1","split_condition":426.5,"yes":1659,"no":1660,"missing":1659,"children":[{"nodeid":1659,"depth":14,"split":"f2","split_condition":1.70140011e-05,"yes":2391,"no":2392,"missing":2391,"children":[{"nodeid":2391,"leaf":62.5953255},{"nodeid":2392,"leaf":296.218201}]},{"nodeid":1660,"depth":14,"split":"f1","split_condition":465.5,"yes":2393,"no":2394,"missing":2393,"children":[{"nodeid":2393,"leaf":43.5914879},{"nodeid":2394,"leaf":31.1491528}]}]},{"nodeid":1120,"depth":13,"split":"f1","split_condition":515.5,"yes":1661,"no":1662,"missing":1661,"children":[{"nodeid":1661,"leaf":129.378952},{"nodeid":1662,"leaf":293.691681}]}]},{"nodeid":734,"depth":12,"split":"f2","split_condition":4.12387344e-05,"yes":1121,"no":1122,"missing":1121,"children":[{"nodeid":1121,"depth":13,"split":"f2","split_condition":3.60754857e-05,"yes":1663,"no":1664,"missing":1663,"children":[{"nodeid":1663,"depth":14,"split":"f0","split_condition":236612,"yes":2395,"no":2396,"missing":2395,"children":[{"nodeid":2395,"leaf":166.127274},{"nodeid":2396,"leaf":56.761097}]},{"nodeid":1664,"depth":14,"split":"f1","split_condition":1130.5,"yes":2397,"no":2398,"missing":2397,"children":[{"nodeid":2397,"leaf":37.8735008},{"nodeid":2398,"leaf":58.1131592}]}]},{"nodeid":1122,"depth":13,"split":"f2","split_condition":4.41362718e-05,"yes":1665,"no":1666,"missing":1665,"children":[{"nodeid":1665,"depth":14,"split":"f2","split_condition":4.37550625e-05,"yes":2399,"no":2400,"missing":2399,"children":[{"nodeid":2399,"leaf":71.0460434},{"nodeid":2400,"leaf":135.205551}]},{"nodeid":1666,"depth":14,"split":"f2","split_condition":5.85088237e-05,"yes":2401,"no":2402,"missing":2401,"children":[{"nodeid":2401,"leaf":62.0151024},{"nodeid":2402,"leaf":42.7999992}]}]}]}]},{"nodeid":482,"depth":11,"split":"f2","split_condition":2.82086821e-05,"yes":735,"no":736,"missing":735,"children":[{"nodeid":735,"depth":12,"split":"f1","split_condition":189,"yes":1123,"no":1124,"missing":1123,"children":[{"nodeid":1123,"depth":13,"split":"f1","split_condition":171.5,"yes":1667,"no":1668,"missing":1667,"children":[{"nodeid":1667,"leaf":14},{"nodeid":1668,"leaf":2.4545455}]},{"nodeid":1124,"depth":13,"split":"f2","split_condition":1.55021662e-05,"yes":1669,"no":1670,"missing":1669,"children":[{"nodeid":1669,"depth":14,"split":"f2","split_condition":1.5242249e-05,"yes":2403,"no":2404,"missing":2403,"children":[{"nodeid":2403,"leaf":59.4008598},{"nodeid":2404,"leaf":159.141663}]},{"nodeid":1670,"depth":14,"split":"f2","split_condition":1.90002684e-05,"yes":2405,"no":2406,"missing":2405,"children":[{"nodeid":2405,"leaf":33.7999992},{"nodeid":2406,"leaf":51.8613052}]}]}]},{"nodeid":736,"depth":12,"split":"f2","split_condition":2.97774204e-05,"yes":1125,"no":1126,"missing":1125,"children":[{"nodeid":1125,"depth":13,"split":"f0","split_condition":327204,"yes":1671,"no":1672,"missing":1671,"children":[{"nodeid":1671,"depth":14,"split":"f1","split_condition":931,"yes":2407,"no":2408,"missing":2407,"children":[{"nodeid":2407,"leaf":381.254181},{"nodeid":2408,"leaf":1158.74548}]},{"nodeid":1672,"depth":14,"split":"f1","split_condition":980.5,"yes":2409,"no":2410,"missing":2409,"children":[{"nodeid":2409,"leaf":27.9187508},{"nodeid":2410,"leaf":57.3583336}]}]},{"nodeid":1126,"depth":13,"split":"f2","split_condition":4.30039436e-05,"yes":1673,"no":1674,"missing":1673,"children":[{"nodeid":1673,"depth":14,"split":"f1","split_condition":1156.5,"yes":2411,"no":2412,"missing":2411,"children":[{"nodeid":2411,"leaf":48.5976639},{"nodeid":2412,"leaf":66.1593628}]},{"nodeid":1674,"depth":14,"split":"f1","split_condition":1388,"yes":2413,"no":2414,"missing":2413,"children":[{"nodeid":2413,"leaf":200.449997},{"nodeid":2414,"leaf":74.6592636}]}]}]}]}]}]},{"nodeid":210,"depth":9,"split":"f1","split_condition":5408.5,"yes":321,"no":322,"missing":321,"children":[{"nodeid":321,"depth":10,"split":"f0","split_condition":257715.5,"yes":483,"no":484,"missing":483,"children":[{"nodeid":483,"depth":11,"split":"f1","split_condition":1544.5,"yes":737,"no":738,"missing":737,"children":[{"nodeid":737,"depth":12,"split":"f1","split_condition":1542.5,"yes":1127,"no":1128,"missing":1127,"children":[{"nodeid":1127,"depth":13,"split":"f1","split_condition":1537.5,"yes":1675,"no":1676,"missing":1675,"children":[{"nodeid":1675,"depth":14,"split":"f0","split_condition":203458.5,"yes":2415,"no":2416,"missing":2415,"children":[{"nodeid":2415,"leaf":62.735714},{"nodeid":2416,"leaf":137.894745}]},{"nodeid":1676,"depth":14,"split":"f1","split_condition":1540.5,"yes":2417,"no":2418,"missing":2417,"children":[{"nodeid":2417,"leaf":38.186367},{"nodeid":2418,"leaf":62.363636}]}]},{"nodeid":1128,"leaf":894.200012}]},{"nodeid":738,"depth":12,"split":"f1","split_condition":3022.5,"yes":1129,"no":1130,"missing":1129,"children":[{"nodeid":1129,"depth":13,"split":"f0","split_condition":219635.5,"yes":1677,"no":1678,"missing":1677,"children":[{"nodeid":1677,"depth":14,"split":"f2","split_condition":0.000149355561,"yes":2419,"no":2420,"missing":2419,"children":[{"nodeid":2419,"leaf":53.7322464},{"nodeid":2420,"leaf":74.2059479}]},{"nodeid":1678,"depth":14,"split":"f0","split_condition":219801.5,"yes":2421,"no":2422,"missing":2421,"children":[{"nodeid":2421,"leaf":734.272705},{"nodeid":2422,"leaf":68.5285263}]}]},{"nodeid":1130,"depth":13,"split":"f2","split_condition":0.000125973107,"yes":1679,"no":1680,"missing":1679,"children":[{"nodeid":1679,"depth":14,"split":"f0","split_condition":250531.5,"yes":2423,"no":2424,"missing":2423,"children":[{"nodeid":2423,"leaf":625.878601},{"nodeid":2424,"leaf":34.7437515}]},{"nodeid":1680,"depth":14,"split":"f0","split_condition":184741,"yes":2425,"no":2426,"missing":2425,"children":[{"nodeid":2425,"leaf":94.9521408},{"nodeid":2426,"leaf":72.3664627}]}]}]}]},{"nodeid":484,"depth":11,"split":"f0","split_condition":257809.5,"yes":739,"no":740,"missing":739,"children":[{"nodeid":739,"leaf":706.607117},{"nodeid":740,"depth":12,"split":"f2","split_condition":0.0001435796,"yes":1131,"no":1132,"missing":1131,"children":[{"nodeid":1131,"depth":13,"split":"f2","split_condition":0.000143196812,"yes":1681,"no":1682,"missing":1681,"children":[{"nodeid":1681,"depth":14,"split":"f1","split_condition":1813.5,"yes":2427,"no":2428,"missing":2427,"children":[{"nodeid":2427,"leaf":73.4714508},{"nodeid":2428,"leaf":100.144554}]},{"nodeid":1682,"leaf":351.17334}]},{"nodeid":1132,"depth":13,"split":"f1","split_condition":5290.5,"yes":1683,"no":1684,"missing":1683,"children":[{"nodeid":1683,"depth":14,"split":"f2","split_condition":0.000181473006,"yes":2429,"no":2430,"missing":2429,"children":[{"nodeid":2429,"leaf":72.0390701},{"nodeid":2430,"leaf":51.3539085}]},{"nodeid":1684,"depth":14,"split":"f1","split_condition":5300.5,"yes":2431,"no":2432,"missing":2431,"children":[{"nodeid":2431,"leaf":255.49231},{"nodeid":2432,"leaf":71.6805191}]}]}]}]}]},{"nodeid":322,"depth":10,"split":"f1","split_condition":5415.5,"yes":485,"no":486,"missing":485,"children":[{"nodeid":485,"leaf":285.466675},{"nodeid":486,"depth":11,"split":"f0","split_condition":176509,"yes":741,"no":742,"missing":741,"children":[{"nodeid":741,"depth":12,"split":"f0","split_condition":165468.5,"yes":1133,"no":1134,"missing":1133,"children":[{"nodeid":1133,"depth":13,"split":"f1","split_condition":8638.5,"yes":1685,"no":1686,"missing":1685,"children":[{"nodeid":1685,"depth":14,"split":"f0","split_condition":165203,"yes":2433,"no":2434,"missing":2433,"children":[{"nodeid":2433,"leaf":109.529411},{"nodeid":2434,"leaf":33.4187508}]},{"nodeid":1686,"leaf":346}]},{"nodeid":1134,"depth":13,"split":"f0","split_condition":172584.5,"yes":1687,"no":1688,"missing":1687,"children":[{"nodeid":1687,"depth":14,"split":"f0","split_condition":166170.5,"yes":2435,"no":2436,"missing":2435,"children":[{"nodeid":2435,"leaf":47.7880592},{"nodeid":2436,"leaf":85.6517639}]},{"nodeid":1688,"depth":14,"split":"f1","split_condition":6745,"yes":2437,"no":2438,"missing":2437,"children":[{"nodeid":2437,"leaf":46.6817207},{"nodeid":2438,"leaf":70.1454544}]}]}]},{"nodeid":742,"depth":12,"split":"f2","split_condition":0.000572986959,"yes":1135,"no":1136,"missing":1135,"children":[{"nodeid":1135,"depth":13,"split":"f0","split_condition":176960,"yes":1689,"no":1690,"missing":1689,"children":[{"nodeid":1689,"depth":14,"split":"f0","split_condition":176793.5,"yes":2439,"no":2440,"missing":2439,"children":[{"nodeid":2439,"leaf":99.5200043},{"nodeid":2440,"leaf":491.309082}]},{"nodeid":1690,"depth":14,"split":"f2","split_condition":0.000178672402,"yes":2441,"no":2442,"missing":2441,"children":[{"nodeid":2441,"leaf":151.255646},{"nodeid":2442,"leaf":99.3673096}]}]},{"nodeid":1136,"depth":13,"split":"f0","split_condition":182793.5,"yes":1691,"no":1692,"missing":1691,"children":[{"nodeid":1691,"depth":14,"split":"f2","split_condition":0.00058091653,"yes":2443,"no":2444,"missing":2443,"children":[{"nodeid":2443,"leaf":424.745453},{"nodeid":2444,"leaf":97.7925949}]},{"nodeid":1692,"leaf":601.864319}]}]}]}]}]}]},{"nodeid":140,"depth":8,"split":"f1","split_condition":2614.5,"yes":211,"no":212,"missing":211,"children":[{"nodeid":211,"depth":9,"split":"f0","split_condition":432557,"yes":323,"no":324,"missing":323,"children":[{"nodeid":323,"depth":10,"split":"f2","split_condition":3.00066386e-05,"yes":487,"no":488,"missing":487,"children":[{"nodeid":487,"depth":11,"split":"f1","split_condition":682.5,"yes":743,"no":744,"missing":743,"children":[{"nodeid":743,"depth":12,"split":"f2","split_condition":1.76635695e-05,"yes":1137,"no":1138,"missing":1137,"children":[{"nodeid":1137,"depth":13,"split":"f0","split_condition":364801,"yes":1693,"no":1694,"missing":1693,"children":[{"nodeid":1693,"depth":14,"split":"f0","split_condition":352913,"yes":2445,"no":2446,"missing":2445,"children":[{"nodeid":2445,"leaf":26.7233334},{"nodeid":2446,"leaf":49.7621613}]},{"nodeid":1694,"depth":14,"split":"f0","split_condition":378400.5,"yes":2447,"no":2448,"missing":2447,"children":[{"nodeid":2447,"leaf":154.490906},{"nodeid":2448,"leaf":68.2033081}]}]},{"nodeid":1138,"leaf":182.052643}]},{"nodeid":744,"depth":12,"split":"f1","split_condition":858.5,"yes":1139,"no":1140,"missing":1139,"children":[{"nodeid":1139,"depth":13,"split":"f2","split_condition":1.75828063e-05,"yes":1695,"no":1696,"missing":1695,"children":[{"nodeid":1695,"leaf":82.9866638},{"nodeid":1696,"depth":14,"split":"f0","split_condition":376182.5,"yes":2449,"no":2450,"missing":2449,"children":[{"nodeid":2449,"leaf":37.2666664},{"nodeid":2450,"leaf":49.8202934}]}]},{"nodeid":1140,"depth":13,"split":"f0","split_condition":364555.5,"yes":1697,"no":1698,"missing":1697,"children":[{"nodeid":1697,"depth":14,"split":"f0","split_condition":360849.5,"yes":2451,"no":2452,"missing":2451,"children":[{"nodeid":2451,"leaf":65.4051285},{"nodeid":2452,"leaf":138.56842}]},{"nodeid":1698,"depth":14,"split":"f2","split_condition":2.44881412e-05,"yes":2453,"no":2454,"missing":2453,"children":[{"nodeid":2453,"leaf":75.9033356},{"nodeid":2454,"leaf":53.4491463}]}]}]}]},{"nodeid":488,"depth":11,"split":"f1","split_condition":1091,"yes":745,"no":746,"missing":745,"children":[{"nodeid":745,"leaf":350.836365},{"nodeid":746,"depth":12,"split":"f1","split_condition":1288.5,"yes":1141,"no":1142,"missing":1141,"children":[{"nodeid":1141,"depth":13,"split":"f2","split_condition":3.49447291e-05,"yes":1699,"no":1700,"missing":1699,"children":[{"nodeid":1699,"depth":14,"split":"f2","split_condition":3.41405503e-05,"yes":2455,"no":2456,"missing":2455,"children":[{"nodeid":2455,"leaf":63.9766426},{"nodeid":2456,"leaf":204.676926}]},{"nodeid":1700,"leaf":490.327301}]},{"nodeid":1142,"depth":13,"split":"f2","split_condition":6.96319912e-05,"yes":1701,"no":1702,"missing":1701,"children":[{"nodeid":1701,"depth":14,"split":"f2","split_condition":4.79984737e-05,"yes":2457,"no":2458,"missing":2457,"children":[{"nodeid":2457,"leaf":73.0383835},{"nodeid":2458,"leaf":83.5585938}]},{"nodeid":1702,"depth":14,"split":"f2","split_condition":7.06261781e-05,"yes":2459,"no":2460,"missing":2459,"children":[{"nodeid":2459,"leaf":32.3333359},{"nodeid":2460,"leaf":49.9681816}]}]}]}]}]},{"nodeid":324,"depth":10,"split":"f2","split_condition":2.62352769e-05,"yes":489,"no":490,"missing":489,"children":[{"nodeid":489,"depth":11,"split":"f0","split_condition":487247.5,"yes":747,"no":748,"missing":747,"children":[{"nodeid":747,"depth":12,"split":"f1","split_condition":345.5,"yes":1143,"no":1144,"missing":1143,"children":[{"nodeid":1143,"leaf":29.3850002},{"nodeid":1144,"depth":13,"split":"f0","split_condition":444649.5,"yes":1703,"no":1704,"missing":1703,"children":[{"nodeid":1703,"depth":14,"split":"f1","split_condition":1050.5,"yes":2461,"no":2462,"missing":2461,"children":[{"nodeid":2461,"leaf":61.3511124},{"nodeid":2462,"leaf":38.1583366}]},{"nodeid":1704,"depth":14,"split":"f0","split_condition":448230,"yes":2463,"no":2464,"missing":2463,"children":[{"nodeid":2463,"leaf":94.2708359},{"nodeid":2464,"leaf":71.4397507}]}]}]},{"nodeid":748,"depth":12,"split":"f0","split_condition":490884.5,"yes":1145,"no":1146,"missing":1145,"children":[{"nodeid":1145,"leaf":261.23999},{"nodeid":1146,"depth":13,"split":"f0","split_condition":508452.5,"yes":1705,"no":1706,"missing":1705,"children":[{"nodeid":1705,"depth":14,"split":"f1","split_condition":546,"yes":2465,"no":2466,"missing":2465,"children":[{"nodeid":2465,"leaf":258.78183},{"nodeid":2466,"leaf":95.4287949}]},{"nodeid":1706,"depth":14,"split":"f1","split_condition":424.5,"yes":2467,"no":2468,"missing":2467,"children":[{"nodeid":2467,"leaf":26.6833344},{"nodeid":2468,"leaf":82.3921204}]}]}]}]},{"nodeid":490,"depth":11,"split":"f2","split_condition":2.65662111e-05,"yes":749,"no":750,"missing":749,"children":[{"nodeid":749,"leaf":478.709076},{"nodeid":750,"depth":12,"split":"f0","split_condition":437731,"yes":1147,"no":1148,"missing":1147,"children":[{"nodeid":1147,"depth":13,"split":"f0","split_condition":437216.5,"yes":1707,"no":1708,"missing":1707,"children":[{"nodeid":1707,"depth":14,"split":"f0","split_condition":432739.5,"yes":2469,"no":2470,"missing":2469,"children":[{"nodeid":2469,"leaf":267.054535},{"nodeid":2470,"leaf":90.6851425}]},{"nodeid":1708,"leaf":636.163635}]},{"nodeid":1148,"depth":13,"split":"f0","split_condition":533869.5,"yes":1709,"no":1710,"missing":1709,"children":[{"nodeid":1709,"depth":14,"split":"f2","split_condition":2.86928789e-05,"yes":2471,"no":2472,"missing":2471,"children":[{"nodeid":2471,"leaf":140.653748},{"nodeid":2472,"leaf":100.846375}]},{"nodeid":1710,"depth":14,"split":"f2","split_condition":4.55021582e-05,"yes":2473,"no":2474,"missing":2473,"children":[{"nodeid":2473,"leaf":116.754227},{"nodeid":2474,"leaf":254.903717}]}]}]}]}]}]},{"nodeid":212,"depth":9,"split":"f2","split_condition":0.000135494745,"yes":325,"no":326,"missing":325,"children":[{"nodeid":325,"depth":10,"split":"f2","split_condition":7.45808065e-05,"yes":491,"no":492,"missing":491,"children":[{"nodeid":491,"depth":11,"split":"f2","split_condition":7.40613468e-05,"yes":751,"no":752,"missing":751,"children":[{"nodeid":751,"depth":12,"split":"f2","split_condition":7.26649669e-05,"yes":1149,"no":1150,"missing":1149,"children":[{"nodeid":1149,"depth":13,"split":"f2","split_condition":7.25081482e-05,"yes":1711,"no":1712,"missing":1711,"children":[{"nodeid":1711,"depth":14,"split":"f0","split_condition":568314.5,"yes":2475,"no":2476,"missing":2475,"children":[{"nodeid":2475,"leaf":147.310684},{"nodeid":2476,"leaf":106.378738}]},{"nodeid":1712,"leaf":309.791687}]},{"nodeid":1150,"depth":13,"split":"f0","split_condition":470566,"yes":1713,"no":1714,"missing":1713,"children":[{"nodeid":1713,"depth":14,"split":"f2","split_condition":7.28830419e-05,"yes":2477,"no":2478,"missing":2477,"children":[{"nodeid":2477,"leaf":104.891663},{"nodeid":2478,"leaf":65.4767914}]},{"nodeid":1714,"depth":14,"split":"f2","split_condition":7.29488529e-05,"yes":2479,"no":2480,"missing":2479,"children":[{"nodeid":2479,"leaf":64.2799988},{"nodeid":2480,"leaf":116.27813}]}]}]},{"nodeid":752,"depth":12,"split":"f2","split_condition":7.41929398e-05,"yes":1151,"no":1152,"missing":1151,"children":[{"nodeid":1151,"leaf":555.763611},{"nodeid":1152,"depth":13,"split":"f2","split_condition":7.44427962e-05,"yes":1715,"no":1716,"missing":1715,"children":[{"nodeid":1715,"depth":14,"split":"f2","split_condition":7.42409175e-05,"yes":2481,"no":2482,"missing":2481,"children":[{"nodeid":2481,"leaf":137.15834},{"nodeid":2482,"leaf":83.5458298}]},{"nodeid":1716,"leaf":241.018188}]}]}]},{"nodeid":492,"depth":11,"split":"f0","split_condition":351612.5,"yes":753,"no":754,"missing":753,"children":[{"nodeid":753,"depth":12,"split":"f0","split_condition":351245.5,"yes":1153,"no":1154,"missing":1153,"children":[{"nodeid":1153,"depth":13,"split":"f2","split_condition":0.00012532901,"yes":1717,"no":1718,"missing":1717,"children":[{"nodeid":1717,"depth":14,"split":"f0","split_condition":350551,"yes":2483,"no":2484,"missing":2483,"children":[{"nodeid":2483,"leaf":84.7577438},{"nodeid":2484,"leaf":30.3999996}]},{"nodeid":1718,"leaf":291.373352}]},{"nodeid":1154,"leaf":807.549988}]},{"nodeid":754,"depth":12,"split":"f0","split_condition":464771.5,"yes":1155,"no":1156,"missing":1155,"children":[{"nodeid":1155,"depth":13,"split":"f1","split_condition":5831.5,"yes":1719,"no":1720,"missing":1719,"children":[{"nodeid":1719,"depth":14,"split":"f2","split_condition":0.000114723436,"yes":2485,"no":2486,"missing":2485,"children":[{"nodeid":2485,"leaf":93.884491},{"nodeid":2486,"leaf":113.090858}]},{"nodeid":1720,"depth":14,"split":"f1","split_condition":5969.5,"yes":2487,"no":2488,"missing":2487,"children":[{"nodeid":2487,"leaf":283.631561},{"nodeid":2488,"leaf":62.46875}]}]},{"nodeid":1156,"depth":13,"split":"f0","split_condition":467546.5,"yes":1721,"no":1722,"missing":1721,"children":[{"nodeid":1721,"depth":14,"split":"f0","split_condition":467062,"yes":2489,"no":2490,"missing":2489,"children":[{"nodeid":2489,"leaf":153.593552},{"nodeid":2490,"leaf":665.745483}]},{"nodeid":1722,"depth":14,"split":"f1","split_condition":7605.5,"yes":2491,"no":2492,"missing":2491,"children":[{"nodeid":2491,"leaf":121.273888},{"nodeid":2492,"leaf":308.880005}]}]}]}]}]},{"nodeid":326,"depth":10,"split":"f2","split_condition":0.000135912705,"yes":493,"no":494,"missing":493,"children":[{"nodeid":493,"leaf":1311.23633},{"nodeid":494,"depth":11,"split":"f0","split_condition":581130,"yes":755,"no":756,"missing":755,"children":[{"nodeid":755,"depth":12,"split":"f0","split_condition":349034,"yes":1157,"no":1158,"missing":1157,"children":[{"nodeid":1157,"depth":13,"split":"f1","split_condition":6210,"yes":1723,"no":1724,"missing":1723,"children":[{"nodeid":1723,"depth":14,"split":"f1","split_condition":5609.5,"yes":2493,"no":2494,"missing":2493,"children":[{"nodeid":2493,"leaf":124.781822},{"nodeid":2494,"leaf":750.818176}]},{"nodeid":1724,"depth":14,"split":"f0","split_condition":348773,"yes":2495,"no":2496,"missing":2495,"children":[{"nodeid":2495,"leaf":108.544228},{"nodeid":2496,"leaf":344.709076}]}]},{"nodeid":1158,"depth":13,"split":"f0","split_condition":369967,"yes":1725,"no":1726,"missing":1725,"children":[{"nodeid":1725,"depth":14,"split":"f2","split_condition":0.000153469446,"yes":2497,"no":2498,"missing":2497,"children":[{"nodeid":2497,"leaf":170.159546},{"nodeid":2498,"leaf":100.59478}]},{"nodeid":1726,"depth":14,"split":"f0","split_condition":372291,"yes":2499,"no":2500,"missing":2499,"children":[{"nodeid":2499,"leaf":324.820892},{"nodeid":2500,"leaf":148.693344}]}]}]},{"nodeid":756,"depth":12,"split":"f0","split_condition":583502.5,"yes":1159,"no":1160,"missing":1159,"children":[{"nodeid":1159,"leaf":709.509094},{"nodeid":1160,"depth":13,"split":"f1","split_condition":10005,"yes":1727,"no":1728,"missing":1727,"children":[{"nodeid":1727,"leaf":175.105881},{"nodeid":1728,"leaf":88.3333359}]}]}]}]}]}]}]}]},{"nodeid":56,"depth":6,"split":"f2","split_condition":0.00193748996,"yes":89,"no":90,"missing":89,"children":[{"nodeid":89,"depth":7,"split":"f1","split_condition":26665.5,"yes":141,"no":142,"missing":141,"children":[{"nodeid":141,"depth":8,"split":"f0","split_condition":326880.5,"yes":213,"no":214,"missing":213,"children":[{"nodeid":213,"depth":9,"split":"f1","split_condition":18795.5,"yes":327,"no":328,"missing":327,"children":[{"nodeid":327,"depth":10,"split":"f0","split_condition":118126.5,"yes":495,"no":496,"missing":495,"children":[{"nodeid":495,"depth":11,"split":"f0","split_condition":88695.5,"yes":757,"no":758,"missing":757,"children":[{"nodeid":757,"depth":12,"split":"f2","split_condition":0.00178624387,"yes":1161,"no":1162,"missing":1161,"children":[{"nodeid":1161,"depth":13,"split":"f2","split_condition":0.00137576438,"yes":1729,"no":1730,"missing":1729,"children":[{"nodeid":1729,"depth":14,"split":"f1","split_condition":11599,"yes":2501,"no":2502,"missing":2501,"children":[{"nodeid":2501,"leaf":39.034481},{"nodeid":2502,"leaf":131.218185}]},{"nodeid":1730,"depth":14,"split":"f0","split_condition":74706,"yes":2503,"no":2504,"missing":2503,"children":[{"nodeid":2503,"leaf":23.3081093},{"nodeid":2504,"leaf":40.8416672}]}]},{"nodeid":1162,"depth":13,"split":"f2","split_condition":0.00182124134,"yes":1731,"no":1732,"missing":1731,"children":[{"nodeid":1731,"leaf":239.618195},{"nodeid":1732,"depth":14,"split":"f0","split_condition":79414,"yes":2505,"no":2506,"missing":2505,"children":[{"nodeid":2505,"leaf":23.3684216},{"nodeid":2506,"leaf":48.75}]}]}]},{"nodeid":758,"depth":12,"split":"f0","split_condition":89369,"yes":1163,"no":1164,"missing":1163,"children":[{"nodeid":1163,"leaf":755.78186},{"nodeid":1164,"depth":13,"split":"f1","split_condition":12704,"yes":1733,"no":1734,"missing":1733,"children":[{"nodeid":1733,"depth":14,"split":"f1","split_condition":12665.5,"yes":2507,"no":2508,"missing":2507,"children":[{"nodeid":2507,"leaf":71.235672},{"nodeid":2508,"leaf":383.309082}]},{"nodeid":1734,"depth":14,"split":"f1","split_condition":14927.5,"yes":2509,"no":2510,"missing":2509,"children":[{"nodeid":2509,"leaf":52.3329163},{"nodeid":2510,"leaf":71.924614}]}]}]}]},{"nodeid":496,"depth":11,"split":"f0","split_condition":119320,"yes":759,"no":760,"missing":759,"children":[{"nodeid":759,"depth":12,"split":"f0","split_condition":119132,"yes":1165,"no":1166,"missing":1165,"children":[{"nodeid":1165,"depth":13,"split":"f0","split_condition":118401,"yes":1735,"no":1736,"missing":1735,"children":[{"nodeid":1735,"leaf":334.709076},{"nodeid":1736,"depth":14,"split":"f0","split_condition":118921,"yes":2511,"no":2512,"missing":2511,"children":[{"nodeid":2511,"leaf":50.0722237},{"nodeid":2512,"leaf":124.909096}]}]},{"nodeid":1166,"leaf":1151.67273}]},{"nodeid":760,"depth":12,"split":"f0","split_condition":145253.5,"yes":1167,"no":1168,"missing":1167,"children":[{"nodeid":1167,"depth":13,"split":"f0","split_condition":135645,"yes":1737,"no":1738,"missing":1737,"children":[{"nodeid":1737,"depth":14,"split":"f0","split_condition":133565.5,"yes":2513,"no":2514,"missing":2513,"children":[{"nodeid":2513,"leaf":98.2255325},{"nodeid":2514,"leaf":179.896255}]},{"nodeid":1738,"depth":14,"split":"f2","split_condition":0.000889793271,"yes":2515,"no":2516,"missing":2515,"children":[{"nodeid":2515,"leaf":75.2559738},{"nodeid":2516,"leaf":54.9207954}]}]},{"nodeid":1168,"depth":13,"split":"f0","split_condition":146937,"yes":1739,"no":1740,"missing":1739,"children":[{"nodeid":1739,"depth":14,"split":"f1","split_condition":17330,"yes":2517,"no":2518,"missing":2517,"children":[{"nodeid":2517,"leaf":167.852463},{"nodeid":2518,"leaf":588.090942}]},{"nodeid":1740,"depth":14,"split":"f1","split_condition":11057,"yes":2519,"no":2520,"missing":2519,"children":[{"nodeid":2519,"leaf":220.40123},{"nodeid":2520,"leaf":124.288811}]}]}]}]}]},{"nodeid":328,"depth":10,"split":"f1","split_condition":18807.5,"yes":497,"no":498,"missing":497,"children":[{"nodeid":497,"leaf":1270.97498},{"nodeid":498,"depth":11,"split":"f0","split_condition":141093.5,"yes":761,"no":762,"missing":761,"children":[{"nodeid":761,"depth":12,"split":"f1","split_condition":22968.5,"yes":1169,"no":1170,"missing":1169,"children":[{"nodeid":1169,"depth":13,"split":"f2","split_condition":0.00187193905,"yes":1741,"no":1742,"missing":1741,"children":[{"nodeid":1741,"depth":14,"split":"f2","split_condition":0.00161684421,"yes":2521,"no":2522,"missing":2521,"children":[{"nodeid":2521,"leaf":77.0930252},{"nodeid":2522,"leaf":45.287323}]},{"nodeid":1742,"leaf":113.625}]},{"nodeid":1170,"leaf":140.261108}]},{"nodeid":762,"depth":12,"split":"f2","split_condition":0.00173171784,"yes":1171,"no":1172,"missing":1171,"children":[{"nodeid":1171,"depth":13,"split":"f0","split_condition":146211.5,"yes":1743,"no":1744,"missing":1743,"children":[{"nodeid":1743,"depth":14,"split":"f1","split_condition":22051,"yes":2523,"no":2524,"missing":2523,"children":[{"nodeid":2523,"leaf":206.470825},{"nodeid":2524,"leaf":534.064331}]},{"nodeid":1744,"depth":14,"split":"f2","split_condition":0.00123348762,"yes":2525,"no":2526,"missing":2525,"children":[{"nodeid":2525,"leaf":162.621613},{"nodeid":2526,"leaf":93.0702744}]}]},{"nodeid":1172,"leaf":809.076904}]}]}]}]},{"nodeid":214,"depth":9,"split":"f0","split_condition":327077,"yes":329,"no":330,"missing":329,"children":[{"nodeid":329,"leaf":1176.09094},{"nodeid":330,"depth":10,"split":"f0","split_condition":449946,"yes":499,"no":500,"missing":499,"children":[{"nodeid":499,"depth":11,"split":"f2","split_condition":0.000332183787,"yes":763,"no":764,"missing":763,"children":[{"nodeid":763,"depth":12,"split":"f1","split_condition":12892.5,"yes":1173,"no":1174,"missing":1173,"children":[{"nodeid":1173,"depth":13,"split":"f0","split_condition":437571.5,"yes":1745,"no":1746,"missing":1745,"children":[{"nodeid":1745,"depth":14,"split":"f0","split_condition":389193.5,"yes":2527,"no":2528,"missing":2527,"children":[{"nodeid":2527,"leaf":153.630539},{"nodeid":2528,"leaf":121.954399}]},{"nodeid":1746,"depth":14,"split":"f0","split_condition":440458,"yes":2529,"no":2530,"missing":2529,"children":[{"nodeid":2529,"leaf":286},{"nodeid":2530,"leaf":145.776779}]}]},{"nodeid":1174,"depth":13,"split":"f2","split_condition":0.000324966793,"yes":1747,"no":1748,"missing":1747,"children":[{"nodeid":1747,"depth":14,"split":"f1","split_condition":14029,"yes":2531,"no":2532,"missing":2531,"children":[{"nodeid":2531,"leaf":86.2307129},{"nodeid":2532,"leaf":129.758347}]},{"nodeid":1748,"depth":14,"split":"f2","split_condition":0.000326099398,"yes":2533,"no":2534,"missing":2533,"children":[{"nodeid":2533,"leaf":322.1091},{"nodeid":2534,"leaf":102.356369}]}]}]},{"nodeid":764,"depth":12,"split":"f2","split_condition":0.000332673604,"yes":1175,"no":1176,"missing":1175,"children":[{"nodeid":1175,"leaf":2599.2417},{"nodeid":1176,"depth":13,"split":"f2","split_condition":0.000333423377,"yes":1749,"no":1750,"missing":1749,"children":[{"nodeid":1749,"leaf":513.345459},{"nodeid":1750,"depth":14,"split":"f1","split_condition":16247.5,"yes":2535,"no":2536,"missing":2535,"children":[{"nodeid":2535,"leaf":155.218185},{"nodeid":2536,"leaf":183.630692}]}]}]}]},{"nodeid":500,"depth":11,"split":"f0","split_condition":450230.5,"yes":765,"no":766,"missing":765,"children":[{"nodeid":765,"leaf":1251.41821},{"nodeid":766,"depth":12,"split":"f1","split_condition":18109,"yes":1177,"no":1178,"missing":1177,"children":[{"nodeid":1177,"depth":13,"split":"f0","split_condition":552774,"yes":1751,"no":1752,"missing":1751,"children":[{"nodeid":1751,"depth":14,"split":"f2","split_condition":0.000346847577,"yes":2537,"no":2538,"missing":2537,"children":[{"nodeid":2537,"leaf":179.694977},{"nodeid":2538,"leaf":129.001328}]},{"nodeid":1752,"depth":14,"split":"f0","split_condition":554610,"yes":2539,"no":2540,"missing":2539,"children":[{"nodeid":2539,"leaf":540.796875},{"nodeid":2540,"leaf":211.171341}]}]},{"nodeid":1178,"depth":13,"split":"f1","split_condition":18138.5,"yes":1753,"no":1754,"missing":1753,"children":[{"nodeid":1753,"leaf":912.308289},{"nodeid":1754,"depth":14,"split":"f1","split_condition":18326.5,"yes":2541,"no":2542,"missing":2541,"children":[{"nodeid":2541,"leaf":352.177368},{"nodeid":2542,"leaf":217.165268}]}]}]}]}]}]}]},{"nodeid":142,"depth":8,"split":"f2","split_condition":0.00148683484,"yes":215,"no":216,"missing":215,"children":[{"nodeid":215,"depth":9,"split":"f0","split_condition":482356,"yes":331,"no":332,"missing":331,"children":[{"nodeid":331,"depth":10,"split":"f2","split_condition":0.0013096676,"yes":501,"no":502,"missing":501,"children":[{"nodeid":501,"depth":11,"split":"f1","split_condition":26997.5,"yes":767,"no":768,"missing":767,"children":[{"nodeid":767,"depth":12,"split":"f1","split_condition":26968.5,"yes":1179,"no":1180,"missing":1179,"children":[{"nodeid":1179,"depth":13,"split":"f2","split_condition":0.000887184986,"yes":1755,"no":1756,"missing":1755,"children":[{"nodeid":1755,"depth":14,"split":"f0","split_condition":333598.5,"yes":2543,"no":2544,"missing":2543,"children":[{"nodeid":2543,"leaf":1171.01819},{"nodeid":2544,"leaf":278.840637}]},{"nodeid":1756,"depth":14,"split":"f0","split_condition":260276,"yes":2545,"no":2546,"missing":2545,"children":[{"nodeid":2545,"leaf":57.6071434},{"nodeid":2546,"leaf":102.61364}]}]},{"nodeid":1180,"leaf":828.650024}]},{"nodeid":768,"depth":12,"split":"f1","split_condition":27624.5,"yes":1181,"no":1182,"missing":1181,"children":[{"nodeid":1181,"depth":13,"split":"f0","split_condition":373249,"yes":1757,"no":1758,"missing":1757,"children":[{"nodeid":1757,"depth":14,"split":"f1","split_condition":27122,"yes":2547,"no":2548,"missing":2547,"children":[{"nodeid":2547,"leaf":72.9472275},{"nodeid":2548,"leaf":124.591003}]},{"nodeid":1758,"depth":14,"split":"f0","split_condition":382829.5,"yes":2549,"no":2550,"missing":2549,"children":[{"nodeid":2549,"leaf":220.523071},{"nodeid":2550,"leaf":150.09375}]}]},{"nodeid":1182,"depth":13,"split":"f1","split_condition":27668,"yes":1759,"no":1760,"missing":1759,"children":[{"nodeid":1759,"leaf":669.163635},{"nodeid":1760,"depth":14,"split":"f2","split_condition":0.000722713885,"yes":2551,"no":2552,"missing":2551,"children":[{"nodeid":2551,"leaf":254.61937},{"nodeid":2552,"leaf":205.058426}]}]}]}]},{"nodeid":502,"depth":11,"split":"f2","split_condition":0.00131464982,"yes":769,"no":770,"missing":769,"children":[{"nodeid":769,"leaf":1533.17334},{"nodeid":770,"depth":12,"split":"f2","split_condition":0.00135369715,"yes":1183,"no":1184,"missing":1183,"children":[{"nodeid":1183,"depth":13,"split":"f2","split_condition":0.00132132589,"yes":1761,"no":1762,"missing":1761,"children":[{"nodeid":1761,"depth":14,"split":"f0","split_condition":302286,"yes":2553,"no":2554,"missing":2553,"children":[{"nodeid":2553,"leaf":105.763634},{"nodeid":2554,"leaf":457.654541}]},{"nodeid":1762,"depth":14,"split":"f2","split_condition":0.00132429076,"yes":2555,"no":2556,"missing":2555,"children":[{"nodeid":2555,"leaf":60.0181847},{"nodeid":2556,"leaf":162.957687}]}]},{"nodeid":1184,"depth":13,"split":"f2","split_condition":0.00137147249,"yes":1763,"no":1764,"missing":1763,"children":[{"nodeid":1763,"depth":14,"split":"f0","split_condition":303473.5,"yes":2557,"no":2558,"missing":2557,"children":[{"nodeid":2557,"leaf":1114.60498},{"nodeid":2558,"leaf":292.320831}]},{"nodeid":1764,"depth":14,"split":"f0","split_condition":232099.5,"yes":2559,"no":2560,"missing":2559,"children":[{"nodeid":2559,"leaf":439.70163},{"nodeid":2560,"leaf":231.814941}]}]}]}]}]},{"nodeid":332,"depth":10,"split":"f2","split_condition":0.00112579053,"yes":503,"no":504,"missing":503,"children":[{"nodeid":503,"depth":11,"split":"f1","split_condition":36300.5,"yes":771,"no":772,"missing":771,"children":[{"nodeid":771,"depth":12,"split":"f1","split_condition":26793,"yes":1185,"no":1186,"missing":1185,"children":[{"nodeid":1185,"depth":13,"split":"f1","split_condition":26750.5,"yes":1765,"no":1766,"missing":1765,"children":[{"nodeid":1765,"leaf":230.293335},{"nodeid":1766,"leaf":753.327332}]},{"nodeid":1186,"depth":13,"split":"f0","split_condition":515046,"yes":1767,"no":1768,"missing":1767,"children":[{"nodeid":1767,"depth":14,"split":"f1","split_condition":33852,"yes":2561,"no":2562,"missing":2561,"children":[{"nodeid":2561,"leaf":193.269394},{"nodeid":2562,"leaf":256.147919}]},{"nodeid":1768,"depth":14,"split":"f0","split_condition":516387.5,"yes":2563,"no":2564,"missing":2563,"children":[{"nodeid":2563,"leaf":744.963623},{"nodeid":2564,"leaf":255.643219}]}]}]},{"nodeid":772,"depth":12,"split":"f1","split_condition":36423.5,"yes":1187,"no":1188,"missing":1187,"children":[{"nodeid":1187,"leaf":1120.55835},{"nodeid":1188,"depth":13,"split":"f0","split_condition":533418,"yes":1769,"no":1770,"missing":1769,"children":[{"nodeid":1769,"depth":14,"split":"f0","split_condition":531413.5,"yes":2565,"no":2566,"missing":2565,"children":[{"nodeid":2565,"leaf":323.151306},{"nodeid":2566,"leaf":1082.40955}]},{"nodeid":1770,"depth":14,"split":"f2","split_condition":0.000682899205,"yes":2567,"no":2568,"missing":2567,"children":[{"nodeid":2567,"leaf":176.911118},{"nodeid":2568,"leaf":284.478424}]}]}]}]},{"nodeid":504,"depth":11,"split":"f1","split_condition":57784.5,"yes":773,"no":774,"missing":773,"children":[{"nodeid":773,"leaf":1798.89087},{"nodeid":774,"depth":12,"split":"f1","split_condition":60819,"yes":1189,"no":1190,"missing":1189,"children":[{"nodeid":1189,"depth":13,"split":"f0","split_condition":506127.5,"yes":1771,"no":1772,"missing":1771,"children":[{"nodeid":1771,"leaf":119.599998},{"nodeid":1772,"leaf":250.745468}]},{"nodeid":1190,"depth":13,"split":"f0","split_condition":549145.5,"yes":1773,"no":1774,"missing":1773,"children":[{"nodeid":1773,"depth":14,"split":"f0","split_condition":535507,"yes":2569,"no":2570,"missing":2569,"children":[{"nodeid":2569,"leaf":347.986115},{"nodeid":2570,"leaf":704.145447}]},{"nodeid":1774,"leaf":118.478577}]}]}]}]}]},{"nodeid":216,"depth":9,"split":"f0","split_condition":338790,"yes":333,"no":334,"missing":333,"children":[{"nodeid":333,"depth":10,"split":"f1","split_condition":44391,"yes":505,"no":506,"missing":505,"children":[{"nodeid":505,"depth":11,"split":"f1","split_condition":36217.5,"yes":775,"no":776,"missing":775,"children":[{"nodeid":775,"depth":12,"split":"f0","split_condition":177666,"yes":1191,"no":1192,"missing":1191,"children":[{"nodeid":1191,"depth":13,"split":"f2","split_condition":0.00169364642,"yes":1775,"no":1776,"missing":1775,"children":[{"nodeid":1775,"leaf":1296.69507},{"nodeid":1776,"depth":14,"split":"f0","split_condition":162938.5,"yes":2571,"no":2572,"missing":2571,"children":[{"nodeid":2571,"leaf":491.850006},{"nodeid":2572,"leaf":60.4944458}]}]},{"nodeid":1192,"depth":13,"split":"f0","split_condition":192901.5,"yes":1777,"no":1778,"missing":1777,"children":[{"nodeid":1777,"depth":14,"split":"f2","split_condition":0.00170656212,"yes":2573,"no":2574,"missing":2573,"children":[{"nodeid":2573,"leaf":82.5642929},{"nodeid":2574,"leaf":309.218201}]},{"nodeid":1778,"depth":14,"split":"f0","split_condition":210291.5,"yes":2575,"no":2576,"missing":2575,"children":[{"nodeid":2575,"leaf":694.49115},{"nodeid":2576,"leaf":75.1794128}]}]}]},{"nodeid":776,"depth":12,"split":"f2","split_condition":0.00181818497,"yes":1193,"no":1194,"missing":1193,"children":[{"nodeid":1193,"depth":13,"split":"f2","split_condition":0.00170048536,"yes":1779,"no":1780,"missing":1779,"children":[{"nodeid":1779,"depth":14,"split":"f2","split_condition":0.00159717037,"yes":2577,"no":2578,"missing":2577,"children":[{"nodeid":2577,"leaf":888.626465},{"nodeid":2578,"leaf":225.459381}]},{"nodeid":1780,"leaf":1945.38501}]},{"nodeid":1194,"leaf":117.726318}]}]},{"nodeid":506,"depth":11,"split":"f1","split_condition":48328,"yes":777,"no":778,"missing":777,"children":[{"nodeid":777,"depth":12,"split":"f0","split_condition":303238,"yes":1195,"no":1196,"missing":1195,"children":[{"nodeid":1195,"depth":13,"split":"f2","split_condition":0.00166103209,"yes":1781,"no":1782,"missing":1781,"children":[{"nodeid":1781,"leaf":106.447624},{"nodeid":1782,"leaf":65.9090881}]},{"nodeid":1196,"leaf":57.591671}]},{"nodeid":778,"depth":12,"split":"f1","split_condition":49779.5,"yes":1197,"no":1198,"missing":1197,"children":[{"nodeid":1197,"leaf":266.135712},{"nodeid":1198,"depth":13,"split":"f2","split_condition":0.00168921461,"yes":1783,"no":1784,"missing":1783,"children":[{"nodeid":1783,"leaf":69.3250046},{"nodeid":1784,"depth":14,"split":"f2","split_condition":0.00175485481,"yes":2579,"no":2580,"missing":2579,"children":[{"nodeid":2579,"leaf":262.335724},{"nodeid":2580,"leaf":133.666672}]}]}]}]}]},{"nodeid":334,"depth":10,"split":"f1","split_condition":54827,"yes":507,"no":508,"missing":507,"children":[{"nodeid":507,"leaf":2324.98193},{"nodeid":508,"depth":11,"split":"f0","split_condition":369732,"yes":779,"no":780,"missing":779,"children":[{"nodeid":779,"depth":12,"split":"f1","split_condition":61907,"yes":1199,"no":1200,"missing":1199,"children":[{"nodeid":1199,"depth":13,"split":"f1","split_condition":57730,"yes":1785,"no":1786,"missing":1785,"children":[{"nodeid":1785,"leaf":161.218185},{"nodeid":1786,"leaf":77.2400055}]},{"nodeid":1200,"leaf":412.818176}]},{"nodeid":780,"depth":12,"split":"f0","split_condition":380098.5,"yes":1201,"no":1202,"missing":1201,"children":[{"nodeid":1201,"leaf":2380.2085},{"nodeid":1202,"depth":13,"split":"f2","split_condition":0.00156036648,"yes":1787,"no":1788,"missing":1787,"children":[{"nodeid":1787,"leaf":141.384628},{"nodeid":1788,"leaf":411.127289}]}]}]}]}]}]}]},{"nodeid":90,"depth":7,"split":"f0","split_condition":163581,"yes":143,"no":144,"missing":143,"children":[{"nodeid":143,"depth":8,"split":"f1","split_condition":22790.5,"yes":217,"no":218,"missing":217,"children":[{"nodeid":217,"depth":9,"split":"f2","split_condition":0.00274422602,"yes":335,"no":336,"missing":335,"children":[{"nodeid":335,"depth":10,"split":"f2","split_condition":0.00206980784,"yes":509,"no":510,"missing":509,"children":[{"nodeid":509,"depth":11,"split":"f2","split_condition":0.00201431243,"yes":781,"no":782,"missing":781,"children":[{"nodeid":781,"depth":12,"split":"f2","split_condition":0.00196767924,"yes":1203,"no":1204,"missing":1203,"children":[{"nodeid":1203,"leaf":23.4166679},{"nodeid":1204,"leaf":53.0944481}]},{"nodeid":782,"depth":12,"split":"f0","split_condition":79794.5,"yes":1205,"no":1206,"missing":1205,"children":[{"nodeid":1205,"leaf":365.66156},{"nodeid":1206,"leaf":88.4615402}]}]},{"nodeid":510,"depth":11,"split":"f2","split_condition":0.0021912544,"yes":783,"no":784,"missing":783,"children":[{"nodeid":783,"depth":12,"split":"f2","split_condition":0.002142468,"yes":1207,"no":1208,"missing":1207,"children":[{"nodeid":1207,"depth":13,"split":"f2","split_condition":0.00210159342,"yes":1789,"no":1790,"missing":1789,"children":[{"nodeid":1789,"leaf":24.6133327},{"nodeid":1790,"leaf":44.6545448}]},{"nodeid":1208,"leaf":136.581833}]},{"nodeid":784,"depth":12,"split":"f2","split_condition":0.0022988806,"yes":1209,"no":1210,"missing":1209,"children":[{"nodeid":1209,"depth":13,"split":"f2","split_condition":0.00221944507,"yes":1791,"no":1792,"missing":1791,"children":[{"nodeid":1791,"leaf":43.6533318},{"nodeid":1792,"depth":14,"split":"f2","split_condition":0.0022550826,"yes":2581,"no":2582,"missing":2581,"children":[{"nodeid":2581,"leaf":15.4933338},{"nodeid":2582,"leaf":28.708334}]}]},{"nodeid":1210,"depth":13,"split":"f2","split_condition":0.00247918512,"yes":1793,"no":1794,"missing":1793,"children":[{"nodeid":1793,"depth":14,"split":"f0","split_condition":60543.5,"yes":2583,"no":2584,"missing":2583,"children":[{"nodeid":2583,"leaf":78.3083344},{"nodeid":2584,"leaf":46.3937492}]},{"nodeid":1794,"leaf":24.092308}]}]}]}]},{"nodeid":336,"leaf":241.214996}]},{"nodeid":218,"depth":9,"split":"f1","split_condition":25302.5,"yes":337,"no":338,"missing":337,"children":[{"nodeid":337,"depth":10,"split":"f1","split_condition":23848,"yes":511,"no":512,"missing":511,"children":[{"nodeid":511,"leaf":753.745483},{"nodeid":512,"leaf":1524.47278}]},{"nodeid":338,"depth":10,"split":"f2","split_condition":0.00273357844,"yes":513,"no":514,"missing":513,"children":[{"nodeid":513,"depth":11,"split":"f2","split_condition":0.00231104414,"yes":785,"no":786,"missing":785,"children":[{"nodeid":785,"depth":12,"split":"f0","split_condition":152685,"yes":1211,"no":1212,"missing":1211,"children":[{"nodeid":1211,"depth":13,"split":"f2","split_condition":0.00213703886,"yes":1795,"no":1796,"missing":1795,"children":[{"nodeid":1795,"leaf":38.705265},{"nodeid":1796,"leaf":79.7642899}]},{"nodeid":1212,"leaf":959.758301}]},{"nodeid":786,"depth":12,"split":"f2","split_condition":0.00245578424,"yes":1213,"no":1214,"missing":1213,"children":[{"nodeid":1213,"leaf":1812.89087},{"nodeid":1214,"leaf":532.80835}]}]},{"nodeid":514,"depth":11,"split":"f2","split_condition":0.00289769284,"yes":787,"no":788,"missing":787,"children":[{"nodeid":787,"leaf":19.818182},{"nodeid":788,"leaf":46}]}]}]}]},{"nodeid":144,"depth":8,"split":"f2","split_condition":0.00234758807,"yes":219,"no":220,"missing":219,"children":[{"nodeid":219,"depth":9,"split":"f0","split_condition":233458.5,"yes":339,"no":340,"missing":339,"children":[{"nodeid":339,"depth":10,"split":"f2","split_condition":0.00202083029,"yes":515,"no":516,"missing":515,"children":[{"nodeid":515,"leaf":561},{"nodeid":516,"depth":11,"split":"f1","split_condition":45238.5,"yes":789,"no":790,"missing":789,"children":[{"nodeid":789,"depth":12,"split":"f0","split_condition":177989,"yes":1215,"no":1216,"missing":1215,"children":[{"nodeid":1215,"leaf":2824.37231},{"nodeid":1216,"depth":13,"split":"f0","split_condition":191330,"yes":1797,"no":1798,"missing":1797,"children":[{"nodeid":1797,"leaf":49.6307678},{"nodeid":1798,"leaf":2071.65845}]}]},{"nodeid":790,"leaf":3525.63647}]}]},{"nodeid":340,"depth":10,"split":"f2","split_condition":0.00201950944,"yes":517,"no":518,"missing":517,"children":[{"nodeid":517,"depth":11,"split":"f2","split_condition":0.0019883418,"yes":791,"no":792,"missing":791,"children":[{"nodeid":791,"depth":12,"split":"f2","split_condition":0.00196619914,"yes":1217,"no":1218,"missing":1217,"children":[{"nodeid":1217,"leaf":1856.4364},{"nodeid":1218,"leaf":56.9750023}]},{"nodeid":792,"leaf":2765.81812}]},{"nodeid":518,"depth":11,"split":"f0","split_condition":261388.5,"yes":793,"no":794,"missing":793,"children":[{"nodeid":793,"depth":12,"split":"f0","split_condition":243599,"yes":1219,"no":1220,"missing":1219,"children":[{"nodeid":1219,"leaf":31.6545448},{"nodeid":1220,"leaf":55.3230782}]},{"nodeid":794,"leaf":233.775009}]}]}]},{"nodeid":220,"leaf":3968.81494}]}]}]}]},{"nodeid":32,"depth":5,"split":"f0","split_condition":1178983,"yes":57,"no":58,"missing":57,"children":[{"nodeid":57,"depth":6,"split":"f1","split_condition":6918.5,"yes":91,"no":92,"missing":91,"children":[{"nodeid":91,"depth":7,"split":"f1","split_condition":4868.5,"yes":145,"no":146,"missing":145,"children":[{"nodeid":145,"depth":8,"split":"f0","split_condition":588888.5,"yes":221,"no":222,"missing":221,"children":[{"nodeid":221,"leaf":572.799988},{"nodeid":222,"depth":9,"split":"f0","split_condition":916782,"yes":341,"no":342,"missing":341,"children":[{"nodeid":341,"depth":10,"split":"f1","split_condition":2962.5,"yes":519,"no":520,"missing":519,"children":[{"nodeid":519,"depth":11,"split":"f0","split_condition":604951,"yes":795,"no":796,"missing":795,"children":[{"nodeid":795,"depth":12,"split":"f0","split_condition":600407.5,"yes":1221,"no":1222,"missing":1221,"children":[{"nodeid":1221,"depth":13,"split":"f1","split_condition":2828.5,"yes":1799,"no":1800,"missing":1799,"children":[{"nodeid":1799,"depth":14,"split":"f1","split_condition":2662,"yes":2585,"no":2586,"missing":2585,"children":[{"nodeid":2585,"leaf":109.468376},{"nodeid":2586,"leaf":57.5846138}]},{"nodeid":1800,"leaf":159.491669}]},{"nodeid":1222,"depth":13,"split":"f0","split_condition":601900.5,"yes":1801,"no":1802,"missing":1801,"children":[{"nodeid":1801,"leaf":1165.30908},{"nodeid":1802,"depth":14,"split":"f1","split_condition":1710,"yes":2587,"no":2588,"missing":2587,"children":[{"nodeid":2587,"leaf":84.7846146},{"nodeid":2588,"leaf":322.163666}]}]}]},{"nodeid":796,"depth":12,"split":"f0","split_condition":622455.5,"yes":1223,"no":1224,"missing":1223,"children":[{"nodeid":1223,"depth":13,"split":"f1","split_condition":2799,"yes":1803,"no":1804,"missing":1803,"children":[{"nodeid":1803,"depth":14,"split":"f0","split_condition":606336,"yes":2589,"no":2590,"missing":2589,"children":[{"nodeid":2589,"leaf":46.1772728},{"nodeid":2590,"leaf":84.8398438}]},{"nodeid":1804,"leaf":163.854538}]},{"nodeid":1224,"depth":13,"split":"f0","split_condition":623738,"yes":1805,"no":1806,"missing":1805,"children":[{"nodeid":1805,"leaf":581.991638},{"nodeid":1806,"depth":14,"split":"f2","split_condition":3.20804538e-05,"yes":2591,"no":2592,"missing":2591,"children":[{"nodeid":2591,"leaf":111.750648},{"nodeid":2592,"leaf":135.346909}]}]}]}]},{"nodeid":520,"depth":11,"split":"f1","split_condition":3713.5,"yes":797,"no":798,"missing":797,"children":[{"nodeid":797,"depth":12,"split":"f1","split_condition":3707,"yes":1225,"no":1226,"missing":1225,"children":[{"nodeid":1225,"depth":13,"split":"f0","split_condition":705459,"yes":1807,"no":1808,"missing":1807,"children":[{"nodeid":1807,"depth":14,"split":"f2","split_condition":5.16833243e-05,"yes":2593,"no":2594,"missing":2593,"children":[{"nodeid":2593,"leaf":253.812546},{"nodeid":2594,"leaf":157.262238}]},{"nodeid":1808,"depth":14,"split":"f2","split_condition":3.80544261e-05,"yes":2595,"no":2596,"missing":2595,"children":[{"nodeid":2595,"leaf":190.655014},{"nodeid":2596,"leaf":138.402206}]}]},{"nodeid":1226,"leaf":741.963623}]},{"nodeid":798,"depth":12,"split":"f0","split_condition":675287,"yes":1227,"no":1228,"missing":1227,"children":[{"nodeid":1227,"depth":13,"split":"f2","split_condition":7.9292804e-05,"yes":1809,"no":1810,"missing":1809,"children":[{"nodeid":1809,"depth":14,"split":"f2","split_condition":6.13975717e-05,"yes":2597,"no":2598,"missing":2597,"children":[{"nodeid":2597,"leaf":129.068497},{"nodeid":2598,"leaf":100.639305}]},{"nodeid":1810,"leaf":220.654541}]},{"nodeid":1228,"depth":13,"split":"f1","split_condition":4191,"yes":1811,"no":1812,"missing":1811,"children":[{"nodeid":1811,"depth":14,"split":"f1","split_condition":4044,"yes":2599,"no":2600,"missing":2599,"children":[{"nodeid":2599,"leaf":145.33316},{"nodeid":2600,"leaf":103.228722}]},{"nodeid":1812,"depth":14,"split":"f1","split_condition":4266.5,"yes":2601,"no":2602,"missing":2601,"children":[{"nodeid":2601,"leaf":276.931488},{"nodeid":2602,"leaf":174.441757}]}]}]}]}]},{"nodeid":342,"depth":10,"split":"f2","split_condition":7.91832008e-06,"yes":521,"no":522,"missing":521,"children":[{"nodeid":521,"depth":11,"split":"f1","split_condition":539.5,"yes":799,"no":800,"missing":799,"children":[{"nodeid":799,"leaf":22.6611118},{"nodeid":800,"leaf":84.3562546}]},{"nodeid":522,"depth":11,"split":"f2","split_condition":1.07355872e-05,"yes":801,"no":802,"missing":801,"children":[{"nodeid":801,"depth":12,"split":"f2","split_condition":1.0316202e-05,"yes":1229,"no":1230,"missing":1229,"children":[{"nodeid":1229,"leaf":206.439987},{"nodeid":1230,"leaf":711.208374}]},{"nodeid":802,"depth":12,"split":"f0","split_condition":925547.5,"yes":1231,"no":1232,"missing":1231,"children":[{"nodeid":1231,"depth":13,"split":"f0","split_condition":922612,"yes":1813,"no":1814,"missing":1813,"children":[{"nodeid":1813,"leaf":237.895828},{"nodeid":1814,"leaf":441.036377}]},{"nodeid":1232,"depth":13,"split":"f1","split_condition":4206.5,"yes":1815,"no":1816,"missing":1815,"children":[{"nodeid":1815,"depth":14,"split":"f2","split_condition":3.81464997e-05,"yes":2603,"no":2604,"missing":2603,"children":[{"nodeid":2603,"leaf":181.028488},{"nodeid":2604,"leaf":271.146454}]},{"nodeid":1816,"depth":14,"split":"f1","split_condition":4512.5,"yes":2605,"no":2606,"missing":2605,"children":[{"nodeid":2605,"leaf":118.813187},{"nodeid":2606,"leaf":172.665985}]}]}]}]}]}]}]},{"nodeid":146,"depth":8,"split":"f1","split_condition":4874.5,"yes":223,"no":224,"missing":223,"children":[{"nodeid":223,"leaf":3616.03101},{"nodeid":224,"depth":9,"split":"f0","split_condition":654949,"yes":343,"no":344,"missing":343,"children":[{"nodeid":343,"depth":10,"split":"f0","split_condition":649581.5,"yes":523,"no":524,"missing":523,"children":[{"nodeid":523,"depth":11,"split":"f0","split_condition":642629,"yes":803,"no":804,"missing":803,"children":[{"nodeid":803,"depth":12,"split":"f2","split_condition":8.9751753e-05,"yes":1233,"no":1234,"missing":1233,"children":[{"nodeid":1233,"depth":13,"split":"f2","split_condition":7.88968173e-05,"yes":1817,"no":1818,"missing":1817,"children":[{"nodeid":1817,"leaf":53.841671},{"nodeid":1818,"depth":14,"split":"f2","split_condition":8.64305621e-05,"yes":2607,"no":2608,"missing":2607,"children":[{"nodeid":2607,"leaf":117.479019},{"nodeid":2608,"leaf":78.7783813}]}]},{"nodeid":1234,"depth":13,"split":"f0","split_condition":592328.5,"yes":1819,"no":1820,"missing":1819,"children":[{"nodeid":1819,"leaf":69.2782593},{"nodeid":1820,"depth":14,"split":"f0","split_condition":595594.5,"yes":2609,"no":2610,"missing":2609,"children":[{"nodeid":2609,"leaf":240.615387},{"nodeid":2610,"leaf":136.100525}]}]}]},{"nodeid":804,"depth":12,"split":"f0","split_condition":643922,"yes":1235,"no":1236,"missing":1235,"children":[{"nodeid":1235,"leaf":579.969238},{"nodeid":1236,"depth":13,"split":"f2","split_condition":9.1848895e-05,"yes":1821,"no":1822,"missing":1821,"children":[{"nodeid":1821,"depth":14,"split":"f1","split_condition":5629.5,"yes":2611,"no":2612,"missing":2611,"children":[{"nodeid":2611,"leaf":90.5384674},{"nodeid":2612,"leaf":55.1916695}]},{"nodeid":1822,"leaf":232.775009}]}]}]},{"nodeid":524,"depth":11,"split":"f0","split_condition":651179.5,"yes":805,"no":806,"missing":805,"children":[{"nodeid":805,"leaf":5211.30908},{"nodeid":806,"depth":12,"split":"f1","split_condition":6054,"yes":1237,"no":1238,"missing":1237,"children":[{"nodeid":1237,"leaf":433.408356},{"nodeid":1238,"leaf":225.978561}]}]}]},{"nodeid":344,"depth":10,"split":"f1","split_condition":6005,"yes":525,"no":526,"missing":525,"children":[{"nodeid":525,"depth":11,"split":"f0","split_condition":688246,"yes":807,"no":808,"missing":807,"children":[{"nodeid":807,"depth":12,"split":"f1","split_condition":4929,"yes":1239,"no":1240,"missing":1239,"children":[{"nodeid":1239,"leaf":241.036362},{"nodeid":1240,"depth":13,"split":"f0","split_condition":672113.5,"yes":1823,"no":1824,"missing":1823,"children":[{"nodeid":1823,"depth":14,"split":"f1","split_condition":5351.5,"yes":2613,"no":2614,"missing":2613,"children":[{"nodeid":2613,"leaf":81.4124985},{"nodeid":2614,"leaf":136.154282}]},{"nodeid":1824,"depth":14,"split":"f1","split_condition":4968,"yes":2615,"no":2616,"missing":2615,"children":[{"nodeid":2615,"leaf":44.4583359},{"nodeid":2616,"leaf":86.4557724}]}]}]},{"nodeid":808,"depth":12,"split":"f1","split_condition":4886,"yes":1241,"no":1242,"missing":1241,"children":[{"nodeid":1241,"leaf":91.1500015},{"nodeid":1242,"depth":13,"split":"f1","split_condition":4954,"yes":1825,"no":1826,"missing":1825,"children":[{"nodeid":1825,"depth":14,"split":"f1","split_condition":4934.5,"yes":2617,"no":2618,"missing":2617,"children":[{"nodeid":2617,"leaf":146.232147},{"nodeid":2618,"leaf":377.958344}]},{"nodeid":1826,"depth":14,"split":"f1","split_condition":5945.5,"yes":2619,"no":2620,"missing":2619,"children":[{"nodeid":2619,"leaf":162.6017},{"nodeid":2620,"leaf":120.56459}]}]}]}]},{"nodeid":526,"depth":11,"split":"f2","split_condition":5.52125312e-05,"yes":809,"no":810,"missing":809,"children":[{"nodeid":809,"leaf":721.21875},{"nodeid":810,"depth":12,"split":"f1","split_condition":6017,"yes":1243,"no":1244,"missing":1243,"children":[{"nodeid":1243,"leaf":690.83075},{"nodeid":1244,"depth":13,"split":"f0","split_condition":830130,"yes":1827,"no":1828,"missing":1827,"children":[{"nodeid":1827,"depth":14,"split":"f0","split_condition":691508,"yes":2621,"no":2622,"missing":2621,"children":[{"nodeid":2621,"leaf":116.391663},{"nodeid":2622,"leaf":163.502548}]},{"nodeid":1828,"depth":14,"split":"f0","split_condition":866828,"yes":2623,"no":2624,"missing":2623,"children":[{"nodeid":2623,"leaf":378.25119},{"nodeid":2624,"leaf":214.499069}]}]}]}]}]}]}]}]},{"nodeid":92,"depth":7,"split":"f1","split_condition":6927.5,"yes":147,"no":148,"missing":147,"children":[{"nodeid":147,"leaf":4504.55615},{"nodeid":148,"depth":8,"split":"f2","split_condition":8.32971782e-05,"yes":225,"no":226,"missing":225,"children":[{"nodeid":225,"depth":9,"split":"f2","split_condition":8.26906762e-05,"yes":345,"no":346,"missing":345,"children":[{"nodeid":345,"depth":10,"split":"f1","split_condition":8604.5,"yes":527,"no":528,"missing":527,"children":[{"nodeid":527,"depth":11,"split":"f1","split_condition":8208.5,"yes":811,"no":812,"missing":811,"children":[{"nodeid":811,"depth":12,"split":"f0","split_condition":1148311.5,"yes":1245,"no":1246,"missing":1245,"children":[{"nodeid":1245,"depth":13,"split":"f2","split_condition":8.09348858e-05,"yes":1829,"no":1830,"missing":1829,"children":[{"nodeid":1829,"depth":14,"split":"f2","split_condition":7.43850833e-05,"yes":2625,"no":2626,"missing":2625,"children":[{"nodeid":2625,"leaf":191.595688},{"nodeid":2626,"leaf":140.758347}]},{"nodeid":1830,"depth":14,"split":"f2","split_condition":8.19284614e-05,"yes":2627,"no":2628,"missing":2627,"children":[{"nodeid":2627,"leaf":365.511566},{"nodeid":2628,"leaf":133.90625}]}]},{"nodeid":1246,"depth":13,"split":"f0","split_condition":1164492.5,"yes":1831,"no":1832,"missing":1831,"children":[{"nodeid":1831,"leaf":685.309082},{"nodeid":1832,"leaf":108.12307}]}]},{"nodeid":812,"depth":12,"split":"f2","split_condition":7.87578028e-05,"yes":1247,"no":1248,"missing":1247,"children":[{"nodeid":1247,"depth":13,"split":"f0","split_condition":1127169.5,"yes":1833,"no":1834,"missing":1833,"children":[{"nodeid":1833,"leaf":250.520828},{"nodeid":1834,"leaf":141.744995}]},{"nodeid":1248,"depth":13,"split":"f1","split_condition":8469,"yes":1835,"no":1836,"missing":1835,"children":[{"nodeid":1835,"leaf":1522.42505},{"nodeid":1836,"leaf":140.981827}]}]}]},{"nodeid":528,"depth":11,"split":"f1","split_condition":8670,"yes":813,"no":814,"missing":813,"children":[{"nodeid":813,"leaf":4448.38184},{"nodeid":814,"depth":12,"split":"f2","split_condition":7.96449167e-05,"yes":1249,"no":1250,"missing":1249,"children":[{"nodeid":1249,"depth":13,"split":"f0","split_condition":1142275,"yes":1837,"no":1838,"missing":1837,"children":[{"nodeid":1837,"leaf":445.050018},{"nodeid":1838,"leaf":3958.16919}]},{"nodeid":1250,"depth":13,"split":"f0","split_condition":1106994,"yes":1839,"no":1840,"missing":1839,"children":[{"nodeid":1839,"leaf":543.784607},{"nodeid":1840,"depth":14,"split":"f1","split_condition":9383,"yes":2629,"no":2630,"missing":2629,"children":[{"nodeid":2629,"leaf":131.90715},{"nodeid":2630,"leaf":274.709076}]}]}]}]}]},{"nodeid":346,"depth":10,"split":"f0","split_condition":963345.5,"yes":529,"no":530,"missing":529,"children":[{"nodeid":529,"leaf":7388.21826},{"nodeid":530,"leaf":781.049988}]}]},{"nodeid":226,"depth":9,"split":"f1","split_condition":39440,"yes":347,"no":348,"missing":347,"children":[{"nodeid":347,"depth":10,"split":"f0","split_condition":600143.5,"yes":531,"no":532,"missing":531,"children":[{"nodeid":531,"depth":11,"split":"f0","split_condition":599743,"yes":815,"no":816,"missing":815,"children":[{"nodeid":815,"depth":12,"split":"f1","split_condition":29758.5,"yes":1251,"no":1252,"missing":1251,"children":[{"nodeid":1251,"depth":13,"split":"f0","split_condition":591593.5,"yes":1841,"no":1842,"missing":1841,"children":[{"nodeid":1841,"depth":14,"split":"f0","split_condition":591090.5,"yes":2631,"no":2632,"missing":2631,"children":[{"nodeid":2631,"leaf":243.787262},{"nodeid":2632,"leaf":1566.23633}]},{"nodeid":1842,"depth":14,"split":"f1","split_condition":25366,"yes":2633,"no":2634,"missing":2633,"children":[{"nodeid":2633,"leaf":165.61116},{"nodeid":2634,"leaf":334.353119}]}]},{"nodeid":1252,"depth":13,"split":"f1","split_condition":30517.5,"yes":1843,"no":1844,"missing":1843,"children":[{"nodeid":1843,"leaf":4085.14526},{"nodeid":1844,"depth":14,"split":"f0","split_condition":597214,"yes":2635,"no":2636,"missing":2635,"children":[{"nodeid":2635,"leaf":227.828781},{"nodeid":2636,"leaf":438.89502}]}]}]},{"nodeid":816,"leaf":4482.65479}]},{"nodeid":532,"depth":11,"split":"f1","split_condition":9661.5,"yes":817,"no":818,"missing":817,"children":[{"nodeid":817,"depth":12,"split":"f1","split_condition":7671.5,"yes":1253,"no":1254,"missing":1253,"children":[{"nodeid":1253,"depth":13,"split":"f0","split_condition":684890.5,"yes":1845,"no":1846,"missing":1845,"children":[{"nodeid":1845,"depth":14,"split":"f2","split_condition":0.000119272911,"yes":2637,"no":2638,"missing":2637,"children":[{"nodeid":2637,"leaf":96.9929733},{"nodeid":2638,"leaf":148.310715}]},{"nodeid":1846,"depth":14,"split":"f2","split_condition":0.000100720892,"yes":2639,"no":2640,"missing":2639,"children":[{"nodeid":2639,"leaf":156.30217},{"nodeid":2640,"leaf":227.039993}]}]},{"nodeid":1254,"depth":13,"split":"f1","split_condition":7994.5,"yes":1847,"no":1848,"missing":1847,"children":[{"nodeid":1847,"depth":14,"split":"f1","split_condition":7971.5,"yes":2641,"no":2642,"missing":2641,"children":[{"nodeid":2641,"leaf":311.11731},{"nodeid":2642,"leaf":1169.30908}]},{"nodeid":1848,"depth":14,"split":"f0","split_condition":604726.5,"yes":2643,"no":2644,"missing":2643,"children":[{"nodeid":2643,"leaf":613.89093},{"nodeid":2644,"leaf":190.809509}]}]}]},{"nodeid":818,"depth":12,"split":"f1","split_condition":9681,"yes":1255,"no":1256,"missing":1255,"children":[{"nodeid":1255,"leaf":1003.7417},{"nodeid":1256,"depth":13,"split":"f0","split_condition":962567.5,"yes":1849,"no":1850,"missing":1849,"children":[{"nodeid":1849,"depth":14,"split":"f1","split_condition":10118.5,"yes":2645,"no":2646,"missing":2645,"children":[{"nodeid":2645,"leaf":408.003723},{"nodeid":2646,"leaf":252.230453}]},{"nodeid":1850,"depth":14,"split":"f1","split_condition":23124.5,"yes":2647,"no":2648,"missing":2647,"children":[{"nodeid":2647,"leaf":271.087982},{"nodeid":2648,"leaf":326.688873}]}]}]}]}]},{"nodeid":348,"depth":10,"split":"f0","split_condition":1074176,"yes":533,"no":534,"missing":533,"children":[{"nodeid":533,"depth":11,"split":"f0","split_condition":869664,"yes":819,"no":820,"missing":819,"children":[{"nodeid":819,"depth":12,"split":"f2","split_condition":0.0004955841,"yes":1257,"no":1258,"missing":1257,"children":[{"nodeid":1257,"depth":13,"split":"f0","split_condition":828506,"yes":1851,"no":1852,"missing":1851,"children":[{"nodeid":1851,"leaf":1137.7688},{"nodeid":1852,"depth":14,"split":"f0","split_condition":848961.5,"yes":2649,"no":2650,"missing":2649,"children":[{"nodeid":2649,"leaf":260.415985},{"nodeid":2650,"leaf":424.68277}]}]},{"nodeid":1258,"depth":13,"split":"f2","split_condition":0.00053575082,"yes":1853,"no":1854,"missing":1853,"children":[{"nodeid":1853,"depth":14,"split":"f2","split_condition":0.000505921314,"yes":2651,"no":2652,"missing":2651,"children":[{"nodeid":2651,"leaf":166.479065},{"nodeid":2652,"leaf":243.816437}]},{"nodeid":1854,"depth":14,"split":"f2","split_condition":0.000545021263,"yes":2653,"no":2654,"missing":2653,"children":[{"nodeid":2653,"leaf":599.697815},{"nodeid":2654,"leaf":325.199158}]}]}]},{"nodeid":820,"depth":12,"split":"f0","split_condition":871985,"yes":1259,"no":1260,"missing":1259,"children":[{"nodeid":1259,"depth":13,"split":"f1","split_condition":50828,"yes":1855,"no":1856,"missing":1855,"children":[{"nodeid":1855,"leaf":1627.21814},{"nodeid":1856,"leaf":342.32309}]},{"nodeid":1260,"depth":13,"split":"f2","split_condition":0.000627152505,"yes":1857,"no":1858,"missing":1857,"children":[{"nodeid":1857,"depth":14,"split":"f0","split_condition":892880,"yes":2655,"no":2656,"missing":2655,"children":[{"nodeid":2655,"leaf":267.549255},{"nodeid":2656,"leaf":351.042236}]},{"nodeid":1858,"depth":14,"split":"f0","split_condition":994089.5,"yes":2657,"no":2658,"missing":2657,"children":[{"nodeid":2657,"leaf":472.729309},{"nodeid":2658,"leaf":2090.14551}]}]}]}]},{"nodeid":534,"depth":11,"split":"f0","split_condition":1075071.5,"yes":821,"no":822,"missing":821,"children":[{"nodeid":821,"leaf":4455},{"nodeid":822,"depth":12,"split":"f0","split_condition":1080702,"yes":1261,"no":1262,"missing":1261,"children":[{"nodeid":1261,"depth":13,"split":"f0","split_condition":1079566,"yes":1859,"no":1860,"missing":1859,"children":[{"nodeid":1859,"leaf":429.497131},{"nodeid":1860,"leaf":2305.72314}]},{"nodeid":1262,"depth":13,"split":"f1","split_condition":48264,"yes":1861,"no":1862,"missing":1861,"children":[{"nodeid":1861,"depth":14,"split":"f0","split_condition":1154251.5,"yes":2659,"no":2660,"missing":2659,"children":[{"nodeid":2659,"leaf":281.448944},{"nodeid":2660,"leaf":375.854248}]},{"nodeid":1862,"depth":14,"split":"f1","split_condition":49091,"yes":2661,"no":2662,"missing":2661,"children":[{"nodeid":2661,"leaf":1119.34167},{"nodeid":2662,"leaf":445.743652}]}]}]}]}]}]}]}]}]},{"nodeid":58,"depth":6,"split":"f0","split_condition":1179392.5,"yes":93,"no":94,"missing":93,"children":[{"nodeid":93,"leaf":4730.05469},{"nodeid":94,"depth":7,"split":"f0","split_condition":2294050,"yes":149,"no":150,"missing":149,"children":[{"nodeid":149,"depth":8,"split":"f0","split_condition":1348086,"yes":227,"no":228,"missing":227,"children":[{"nodeid":227,"depth":9,"split":"f2","split_condition":8.06409589e-05,"yes":349,"no":350,"missing":349,"children":[{"nodeid":349,"depth":10,"split":"f1","split_condition":10163.5,"yes":535,"no":536,"missing":535,"children":[{"nodeid":535,"depth":11,"split":"f2","split_condition":7.8995392e-05,"yes":823,"no":824,"missing":823,"children":[{"nodeid":823,"depth":12,"split":"f0","split_condition":1192607,"yes":1263,"no":1264,"missing":1263,"children":[{"nodeid":1263,"depth":13,"split":"f0","split_condition":1189680.5,"yes":1863,"no":1864,"missing":1863,"children":[{"nodeid":1863,"depth":14,"split":"f1","split_condition":5894.5,"yes":2663,"no":2664,"missing":2663,"children":[{"nodeid":2663,"leaf":116.729027},{"nodeid":2664,"leaf":218.264526}]},{"nodeid":1864,"leaf":4774.45459}]},{"nodeid":1264,"depth":13,"split":"f2","split_condition":7.56289373e-05,"yes":1865,"no":1866,"missing":1865,"children":[{"nodeid":1865,"depth":14,"split":"f0","split_condition":1263198,"yes":2665,"no":2666,"missing":2665,"children":[{"nodeid":2665,"leaf":410.843414},{"nodeid":2666,"leaf":275.785919}]},{"nodeid":1866,"depth":14,"split":"f1","split_condition":9465,"yes":2667,"no":2668,"missing":2667,"children":[{"nodeid":2667,"leaf":2541.19995},{"nodeid":2668,"leaf":195.242111}]}]}]},{"nodeid":824,"leaf":10210.7051}]},{"nodeid":536,"leaf":27356.0938}]},{"nodeid":350,"depth":10,"split":"f1","split_condition":46551.5,"yes":537,"no":538,"missing":537,"children":[{"nodeid":537,"depth":11,"split":"f2","split_condition":0.00013975121,"yes":825,"no":826,"missing":825,"children":[{"nodeid":825,"depth":12,"split":"f1","split_condition":13977,"yes":1265,"no":1266,"missing":1265,"children":[{"nodeid":1265,"depth":13,"split":"f1","split_condition":13883.5,"yes":1867,"no":1868,"missing":1867,"children":[{"nodeid":1867,"depth":14,"split":"f0","split_condition":1291889.5,"yes":2669,"no":2670,"missing":2669,"children":[{"nodeid":2669,"leaf":220.387009},{"nodeid":2670,"leaf":271.729706}]},{"nodeid":1868,"leaf":108.472733}]},{"nodeid":1266,"depth":13,"split":"f2","split_condition":0.00011374017,"yes":1869,"no":1870,"missing":1869,"children":[{"nodeid":1869,"depth":14,"split":"f1","split_condition":14271,"yes":2671,"no":2672,"missing":2671,"children":[{"nodeid":2671,"leaf":319.283325},{"nodeid":2672,"leaf":1073.46155}]},{"nodeid":1870,"depth":14,"split":"f0","split_condition":1202940,"yes":2673,"no":2674,"missing":2673,"children":[{"nodeid":2673,"leaf":165.835724},{"nodeid":2674,"leaf":274.636414}]}]}]},{"nodeid":826,"depth":12,"split":"f1","split_condition":17609,"yes":1267,"no":1268,"missing":1267,"children":[{"nodeid":1267,"leaf":1202.51367},{"nodeid":1268,"depth":13,"split":"f2","split_condition":0.000176697067,"yes":1871,"no":1872,"missing":1871,"children":[{"nodeid":1871,"depth":14,"split":"f1","split_condition":22359,"yes":2675,"no":2676,"missing":2675,"children":[{"nodeid":2675,"leaf":290.661469},{"nodeid":2676,"leaf":137.353851}]},{"nodeid":1872,"depth":14,"split":"f2","split_condition":0.000276460021,"yes":2677,"no":2678,"missing":2677,"children":[{"nodeid":2677,"leaf":411.981049},{"nodeid":2678,"leaf":297.792816}]}]}]}]},{"nodeid":538,"depth":11,"split":"f1","split_condition":47154,"yes":827,"no":828,"missing":827,"children":[{"nodeid":827,"leaf":4340.58936},{"nodeid":828,"depth":12,"split":"f2","split_condition":0.000364330423,"yes":1269,"no":1270,"missing":1269,"children":[{"nodeid":1269,"leaf":2139.8501},{"nodeid":1270,"depth":13,"split":"f0","split_condition":1235178.5,"yes":1873,"no":1874,"missing":1873,"children":[{"nodeid":1873,"depth":14,"split":"f1","split_condition":61608.5,"yes":2679,"no":2680,"missing":2679,"children":[{"nodeid":2679,"leaf":341.168732},{"nodeid":2680,"leaf":474.888092}]},{"nodeid":1874,"depth":14,"split":"f0","split_condition":1239807,"yes":2681,"no":2682,"missing":2681,"children":[{"nodeid":2681,"leaf":3159.56372},{"nodeid":2682,"leaf":510.304901}]}]}]}]}]}]},{"nodeid":228,"depth":9,"split":"f1","split_condition":9024,"yes":351,"no":352,"missing":351,"children":[{"nodeid":351,"depth":10,"split":"f0","split_condition":2195567,"yes":539,"no":540,"missing":539,"children":[{"nodeid":539,"depth":11,"split":"f0","split_condition":1550379,"yes":829,"no":830,"missing":829,"children":[{"nodeid":829,"depth":12,"split":"f2","split_condition":1.79781382e-05,"yes":1271,"no":1272,"missing":1271,"children":[{"nodeid":1271,"depth":13,"split":"f0","split_condition":1494760.5,"yes":1875,"no":1876,"missing":1875,"children":[{"nodeid":1875,"depth":14,"split":"f1","split_condition":606.5,"yes":2683,"no":2684,"missing":2683,"children":[{"nodeid":2683,"leaf":99.8727341},{"nodeid":2684,"leaf":214.122726}]},{"nodeid":1876,"leaf":113.571426}]},{"nodeid":1272,"depth":13,"split":"f2","split_condition":2.16565095e-05,"yes":1877,"no":1878,"missing":1877,"children":[{"nodeid":1877,"leaf":396.533325},{"nodeid":1878,"depth":14,"split":"f2","split_condition":3.00455267e-05,"yes":2685,"no":2686,"missing":2685,"children":[{"nodeid":2685,"leaf":192.430191},{"nodeid":2686,"leaf":247.854355}]}]}]},{"nodeid":830,"depth":12,"split":"f0","split_condition":1559617.5,"yes":1273,"no":1274,"missing":1273,"children":[{"nodeid":1273,"leaf":587.625},{"nodeid":1274,"depth":13,"split":"f2","split_condition":3.65167834e-05,"yes":1879,"no":1880,"missing":1879,"children":[{"nodeid":1879,"depth":14,"split":"f1","split_condition":1293.5,"yes":2687,"no":2688,"missing":2687,"children":[{"nodeid":2687,"leaf":53.8526306},{"nodeid":2688,"leaf":371.647522}]},{"nodeid":1880,"depth":14,"split":"f2","split_condition":4.709524e-05,"yes":2689,"no":2690,"missing":2689,"children":[{"nodeid":2689,"leaf":208.209961},{"nodeid":2690,"leaf":310.289215}]}]}]}]},{"nodeid":540,"depth":11,"split":"f1","split_condition":5524,"yes":831,"no":832,"missing":831,"children":[{"nodeid":831,"leaf":1049.07996},{"nodeid":832,"depth":12,"split":"f1","split_condition":7969,"yes":1275,"no":1276,"missing":1275,"children":[{"nodeid":1275,"depth":13,"split":"f1","split_condition":6528,"yes":1881,"no":1882,"missing":1881,"children":[{"nodeid":1881,"leaf":290.66156},{"nodeid":1882,"leaf":651.163635}]},{"nodeid":1276,"leaf":182.163635}]}]}]},{"nodeid":352,"depth":10,"split":"f1","split_condition":57791,"yes":541,"no":542,"missing":541,"children":[{"nodeid":541,"depth":11,"split":"f0","split_condition":1704741.5,"yes":833,"no":834,"missing":833,"children":[{"nodeid":833,"depth":12,"split":"f1","split_condition":11744,"yes":1277,"no":1278,"missing":1277,"children":[{"nodeid":1277,"depth":13,"split":"f1","split_condition":11330,"yes":1883,"no":1884,"missing":1883,"children":[{"nodeid":1883,"depth":14,"split":"f2","split_condition":6.61878221e-05,"yes":2691,"no":2692,"missing":2691,"children":[{"nodeid":2691,"leaf":508.606049},{"nodeid":2692,"leaf":262.922729}]},{"nodeid":1884,"depth":14,"split":"f0","split_condition":1541246.5,"yes":2693,"no":2694,"missing":2693,"children":[{"nodeid":2693,"leaf":2365.46826},{"nodeid":2694,"leaf":254.576462}]}]},{"nodeid":1278,"depth":13,"split":"f2","split_condition":0.000298623869,"yes":1885,"no":1886,"missing":1885,"children":[{"nodeid":1885,"depth":14,"split":"f2","split_condition":0.000147763145,"yes":2695,"no":2696,"missing":2695,"children":[{"nodeid":2695,"leaf":408.644501},{"nodeid":2696,"leaf":353.000702}]},{"nodeid":1886,"depth":14,"split":"f2","split_condition":0.000346068729,"yes":2697,"no":2698,"missing":2697,"children":[{"nodeid":2697,"leaf":499.337708},{"nodeid":2698,"leaf":370.977509}]}]}]},{"nodeid":834,"depth":12,"split":"f1","split_condition":28052.5,"yes":1279,"no":1280,"missing":1279,"children":[{"nodeid":1279,"depth":13,"split":"f0","split_condition":1713664.5,"yes":1887,"no":1888,"missing":1887,"children":[{"nodeid":1887,"depth":14,"split":"f1","split_condition":15604.5,"yes":2699,"no":2700,"missing":2699,"children":[{"nodeid":2699,"leaf":1142.72729},{"nodeid":2700,"leaf":534.328003}]},{"nodeid":1888,"depth":14,"split":"f2","split_condition":0.000128720567,"yes":2701,"no":2702,"missing":2701,"children":[{"nodeid":2701,"leaf":420.512177},{"nodeid":2702,"leaf":323.380737}]}]},{"nodeid":1280,"depth":13,"split":"f2","split_condition":0.000169352919,"yes":1889,"no":1890,"missing":1889,"children":[{"nodeid":1889,"depth":14,"split":"f2","split_condition":0.000155269896,"yes":2703,"no":2704,"missing":2703,"children":[{"nodeid":2703,"leaf":476.908051},{"nodeid":2704,"leaf":747.009033}]},{"nodeid":1890,"depth":14,"split":"f0","split_condition":1725267,"yes":2705,"no":2706,"missing":2705,"children":[{"nodeid":2705,